{"learner":{"attributes":{},"feature_names":[],"feature_types":[],"gradient_booster":{"model":{"gbtree_model_param":{"num_parallel_tree":"1","num_trees":"200"},"iteration_indptr":[0,1,2,3,4,5,6,7,8,9,10,11,12,13,14,15,16,17,18,19,20,21,22,23,24,25,26,27,28,29,30,31,32,33,34,35,36,37,38,39,40,41,42,43,44,45,46,47,48,49,50,51,52,53,54,55,56,57,58,59,60,61,62,63,64,65,66,67,68,69,70,71,72,73,74,75,76,77,78,79,80,81,82,83,84,85,86,87,88,89,90,91,92,93,94,95,96,97,98,99,100,101,102,103,104,105,106,107,108,109,110,111,112,113,114,115,116,117,118,119,120,121,122,123,124,125,126,127,128,129,130,131,132,133,134,135,136,137,138,139,140,141,142,143,144,145,146,147,148,149,150,151,152,153,154,155,156,157,158,159,160,161,162,163,164,165,166,167,168,169,170,171,172,173,174,175,176,177,178,179,180,181,182,183,184,185,186,187,188,189,190,191,192,193,194,195,196,197,198,199,200],"tree_info":[0,0,0,0,0,0,0,0,0,0,0,0,0,0,0,0,0,0,0,0,0,0,0,0,0,0,0,0,0,0,0,0,0,0,0,0,0,0,0,0,0,0,0,0,0,0,0,0,0,0,0,0,0,0,0,0,0,0,0,0,0,0,0,0,0,0,0,0,0,0,0,0,0,0,0,0,0,0,0,0,0,0,0,0,0,0,0,0,0,0,0,0,0,0,0,0,0,0,0,0,0,0,0,0,0,0,0,0,0,0,0,0,0,0,0,0,0,0,0,0,0,0,0,0,0,0,0,0,0,0,0,0,0,0,0,0,0,0,0,0,0,0,0,0,0,0,0,0,0,0,0,0,0,0,0,0,0,0,0,0,0,0,0,0,0,0,0,0,0,0,0,0,0,0,0,0,0,0,0,0,0,0,0,0,0,0,0,0,0,0,0,0,0,0,0,0,0,0,0,0],"trees":[{"base_weights":[1.9211965E-3,1.2623318E0,-1.6494379E0,6.4544475E-1,1.5031188E0,-1.8828597E0,-7.015585E-2,7.7226297E-3,-6.3562724E-3,9.545892E-3,1.5654834E-2,-1.923521E-2,9.651498E-3,3.4325307E-3,-1.6981388E-2],"categories":[],"categories_nodes":[],"categories_segments":[],"categories_sizes":[],"default_left":[0,0,0,0,0,0,0,0,0,0,0,0,0,0,0],"id":0,"left_children":[1,3,5,7,9,11,13,-1,-1,-1,-1,-1,-1,-1,-1],"loss_changes":[6.1158484E2,2.3782562E1,4.67558E1,8.376255E0,2.5801086E0,1.4684631E1,1.2305072E1,0E0,0E0,0E0,0E0,0E0,0E0,0E0,0E0],"parents":[2147483647,0,0,1,1,2,2,3,3,4,4,5,5,6,6],"right_children":[2,4,6,8,10,12,14,-1,-1,-1,-1,-1,-1,-1,-1],"split_conditions":[1E0,3.611111E-1,6.388889E-1,1E0,1.1290322E-1,8.3116883E-1,4.032258E-1,7.7226297E-3,-6.3562724E-3,9.545892E-3,1.5654834E-2,-1.923521E-2,9.651498E-3,3.4325307E-3,-1.6981388E-2],"split_indices":[13,5,5,6,4,1,4,0,0,0,0,0,0,0,0],"split_type":[0,0,0,0,0,0,0,0,0,0,0,0,0,0,0],"sum_hessian":[2.9183438E2,1.6564235E2,1.2619203E2,4.7536415E1,1.1810594E2,1.0977482E2,1.6417215E1,4.3615887E1,3.9205291E0,1.3721852E1,1.0438409E2,1.0854965E2,1.2251654E0,1.3721852E1,2.6953638E0],"tree_param":{"num_deleted":"0","num_feature":"15","num_nodes":"15","size_leaf_vector":"1"}},{"base_weights":[1.9307892E-3,1.2521324E0,-1.6294807E0,6.396104E-1,1.4915096E0,-1.8593398E0,-7.0229985E-2,7.655427E-3,-6.301155E-3,9.4690425E-3,1.5534782E-2,-1.899497E-2,9.605704E-3,3.402089E-3,-1.6828835E-2],"categories":[],"categories_nodes":[],"categories_segments":[],"categories_sizes":[],"default_left":[0,0,0,0,0,0,0,0,0,0,0,0,0,0,0],"id":1,"left_children":[1,3,5,7,9,11,13,-1,-1,-1,-1,-1,-1,-1,-1],"loss_changes":[5.992688E2,2.343576E1,4.5557404E1,8.2361965E0,2.5400696E0,1.4400787E1,1.2100643E1,0E0,0E0,0E0,0E0,0E0,0E0,0E0,0E0],"parents":[2147483647,0,0,1,1,2,2,3,3,4,4,5,5,6,6],"right_children":[2,4,6,8,10,12,14,-1,-1,-1,-1,-1,-1,-1,-1],"split_conditions":[1E0,3.611111E-1,6.388889E-1,1E0,1.1290322E-1,8.3116883E-1,4.032258E-1,7.655427E-3,-6.301155E-3,9.4690425E-3,1.5534782E-2,-1.899497E-2,9.605704E-3,3.402089E-3,-1.6828835E-2],"split_indices":[13,5,5,6,4,1,4,0,0,0,0,0,0,0,0],"split_type":[0,0,0,0,0,0,0,0,0,0,0,0,0,0,0],"sum_hessian":[2.918174E2,1.6534265E2,1.2647476E2,4.7491806E1,1.1785085E2,1.1005796E2,1.6416807E1,4.3567802E1,3.9240046E0,1.3703095E1,1.0414776E2,1.0883449E2,1.2234719E0,1.3715176E1,2.701632E0],"tree_param":{"num_deleted":"0","num_feature":"15","num_nodes":"15","size_leaf_vector":"1"}},{"base_weights":[1.9402656E-3,1.2421049E0,-1.6100613E0,6.3384104E-1,1.4801278E0,-1.8364956E0,-7.029854E-2,7.588954E-3,-6.2466417E-3,9.393108E-3,1.5417206E-2,-1.8761676E-2,9.560361E-3,3.3719204E-3,-1.6679524E-2],"categories":[],"categories_nodes":[],"categories_segments":[],"categories_sizes":[],"default_left":[0,0,0,0,0,0,0,0,0,0,0,0,0,0,0],"id":2,"left_children":[1,3,5,7,9,11,13,-1,-1,-1,-1,-1,-1,-1,-1],"loss_changes":[5.87283E2,2.3100006E1,4.440628E1,8.098614E0,2.5019836E0,1.412616E1,1.1900717E1,0E0,0E0,0E0,0E0,0E0,0E0,0E0,0E0],"parents":[2147483647,0,0,1,1,2,2,3,3,4,4,5,5,6,6],"right_children":[2,4,6,8,10,12,14,-1,-1,-1,-1,-1,-1,-1,-1],"split_conditions":[1E0,3.611111E-1,6.388889E-1,1E0,1.1290322E-1,8.3116883E-1,4.032258E-1,7.588954E-3,-6.2466417E-3,9.393108E-3,1.5417206E-2,-1.8761676E-2,9.560361E-3,3.3719204E-3,-1.6679524E-2],"split_indices":[13,5,5,6,4,1,4,0,0,0,0,0,0,0,0],"split_type":[0,0,0,0,0,0,0,0,0,0,0,0,0,0,0],"sum_hessian":[2.917664E2,1.6503168E2,1.2673472E2,4.7446304E1,1.1758538E2,1.10318756E2,1.6415962E1,4.351893E1,3.9273758E0,1.3683913E1,1.0390147E2,1.0909702E2,1.2217335E0,1.3708483E1,2.70748E0],"tree_param":{"num_deleted":"0","num_feature":"15","num_nodes":"15","size_leaf_vector":"1"}},{"base_weights":[1.9495974E-3,1.2322438E0,-1.5911562E0,6.281354E-1,1.468966E0,-1.8142962E0,-7.036156E-2,7.5231967E-3,-6.1927214E-3,9.318069E-3,1.5302022E-2,-1.8535007E-2,9.515461E-3,3.3420254E-3,-1.6533358E-2],"categories":[],"categories_nodes":[],"categories_segments":[],"categories_sizes":[],"default_left":[0,0,0,0,0,0,0,0,0,0,0,0,0,0,0],"id":3,"left_children":[1,3,5,7,9,11,13,-1,-1,-1,-1,-1,-1,-1,-1],"loss_changes":[5.756148E2,2.2774765E1,4.3299835E1,7.9634495E0,2.465805E0,1.3860291E1,1.1705173E1,0E0,0E0,0E0,0E0,0E0,0E0,0E0,0E0],"parents":[2147483647,0,0,1,1,2,2,3,3,4,4,5,5,6,6],"right_children":[2,4,6,8,10,12,14,-1,-1,-1,-1,-1,-1,-1,-1],"split_conditions":[1E0,3.611111E-1,6.388889E-1,1E0,1.1290322E-1,8.3116883E-1,4.032258E-1,7.5231967E-3,-6.1927214E-3,9.318069E-3,1.5302022E-2,-1.8535007E-2,9.515461E-3,3.3420254E-3,-1.6533358E-2],"split_indices":[13,5,5,6,4,1,4,0,0,0,0,0,0,0,0],"split_type":[0,0,0,0,0,0,0,0,0,0,0,0,0,0,0],"sum_hessian":[2.9168234E2,1.6470982E2,1.2697253E2,4.7399952E1,1.1730987E2,1.1055783E2,1.6414692E1,4.3469307E1,3.9306452E0,1.3664318E1,1.03645546E2,1.0933788E2,1.219951E0,1.37017765E1,2.7129152E0],"tree_param":{"num_deleted":"0","num_feature":"15","num_nodes":"15","size_leaf_vector":"1"}},{"base_weights":[1.9588761E-3,1.222544E0,-1.5727435E0,6.2249255E-1,1.4580169E0,-1.7927128E0,-7.041925E-2,2.2906486E-3,1.0475198E-2,9.243909E-3,1.5189151E-2,-1.8314667E-2,9.470996E-3,3.312399E-3,-1.6390232E-2],"categories":[],"categories_nodes":[],"categories_segments":[],"categories_sizes":[],"default_left":[0,0,0,0,0,0,0,0,0,0,0,0,0,0,0],"id":4,"left_children":[1,3,5,7,9,11,13,-1,-1,-1,-1,-1,-1,-1,-1],"loss_changes":[5.642522E2,2.2459534E1,4.2235687E1,7.845484E0,2.431366E0,1.3602753E1,1.151387E1,0E0,0E0,0E0,0E0,0E0,0E0,0E0,0E0],"parents":[2147483647,0,0,1,1,2,2,3,3,4,4,5,5,6,6],"right_children":[2,4,6,8,10,12,14,-1,-1,-1,-1,-1,-1,-1,-1],"split_conditions":[1E0,3.611111E-1,6.388889E-1,2.7419356E-1,1.1290322E-1,8.3116883E-1,4.032258E-1,2.2906486E-3,1.0475198E-2,9.243909E-3,1.5189151E-2,-1.8314667E-2,9.470996E-3,3.312399E-3,-1.6390232E-2],"split_indices":[13,5,5,4,4,1,4,0,0,0,0,0,0,0,0],"split_type":[0,0,0,0,0,0,0,0,0,0,0,0,0,0,0],"sum_hessian":[2.9156625E2,1.6437746E2,1.271888E2,4.7352783E1,1.17024666E2,1.10775795E2,1.6413002E1,2.5389688E1,2.1963093E1,1.3644328E1,1.0338034E2,1.0955767E2,1.2181256E0,1.3695057E1,2.7179458E0],"tree_param":{"num_deleted":"0","num_feature":"15","num_nodes":"15","size_leaf_vector":"1"}},{"base_weights":[2.006941E-3,1.2130481E0,-1.5548034E0,6.1710966E-1,1.4472737E0,-1.7717191E0,-7.047169E-2,7.404675E-3,-6.1811423E-3,1.2080061E-2,1.601261E-2,-1.8100385E-2,9.42696E-3,3.2830408E-3,-1.625006E-2],"categories":[],"categories_nodes":[],"categories_segments":[],"categories_sizes":[],"default_left":[0,0,0,0,0,0,0,0,0,0,0,0,0,0,0],"id":5,"left_children":[1,3,5,7,9,11,13,-1,-1,-1,-1,-1,-1,-1,-1],"loss_changes":[5.532073E2,2.2143509E1,4.121161E1,7.818569E0,2.4033356E0,1.3353149E1,1.1326703E1,0E0,0E0,0E0,0E0,0E0,0E0,0E0,0E0],"parents":[2147483647,0,0,1,1,2,2,3,3,4,4,5,5,6,6],"right_children":[2,4,6,8,10,12,14,-1,-1,-1,-1,-1,-1,-1,-1],"split_conditions":[1E0,3.611111E-1,6.388889E-1,1E0,5.648148E-1,8.3116883E-1,4.032258E-1,7.404675E-3,-6.1811423E-3,1.2080061E-2,1.601261E-2,-1.8100385E-2,9.42696E-3,3.2830408E-3,-1.625006E-2],"split_indices":[13,5,5,6,5,1,4,0,0,0,0,0,0,0,0],"split_type":[0,0,0,0,0,0,0,0,0,0,0,0,0,0,0],"sum_hessian":[2.9142203E2,1.640379E2,1.2738411E2,4.7307785E1,1.16730125E2,1.10973206E2,1.6410906E1,4.337646E1,3.9313262E0,4.9171555E1,6.755857E1,1.0975694E2,1.2162582E0,1.3688327E1,2.7225785E0],"tree_param":{"num_deleted":"0","num_feature":"15","num_nodes":"15","size_leaf_vector":"1"}},{"base_weights":[2.0283859E-3,1.203665E0,-1.5373157E0,6.1158127E-1,1.4367429E0,-1.7512894E0,-7.051918E-2,2.2141598E-3,1.0338698E-2,9.061378E-3,1.4974743E-2,-1.7891893E-2,9.383346E-3,3.2539463E-3,-1.6112756E-2],"categories":[],"categories_nodes":[],"categories_segments":[],"categories_sizes":[],"default_left":[0,0,0,0,0,0,0,0,0,0,0,0,0,0,0],"id":6,"left_children":[1,3,5,7,9,11,13,-1,-1,-1,-1,-1,-1,-1,-1],"loss_changes":[5.424284E2,2.1848465E1,4.0225525E1,7.7224083E0,2.4271393E0,1.31111145E1,1.1143547E1,0E0,0E0,0E0,0E0,0E0,0E0,0E0,0E0],"parents":[2147483647,0,0,1,1,2,2,3,3,4,4,5,5,6,6],"right_children":[2,4,6,8,10,12,14,-1,-1,-1,-1,-1,-1,-1,-1],"split_conditions":[1E0,3.611111E-1,6.388889E-1,2.7419356E-1,1.1290322E-1,8.3116883E-1,4.032258E-1,2.2141598E-3,1.0338698E-2,9.061378E-3,1.4974743E-2,-1.7891893E-2,9.383346E-3,3.2539463E-3,-1.6112756E-2],"split_indices":[13,5,5,4,4,1,4,0,0,0,0,0,0,0,0],"split_type":[0,0,0,0,0,0,0,0,0,0,0,0,0,0,0],"sum_hessian":[2.912466E2,1.6368756E2,1.2755906E2,4.7259354E1,1.164282E2,1.1115065E2,1.640841E1,2.5356258E1,2.1903097E1,1.3592454E1,1.0283575E2,1.099363E2,1.2143495E0,1.3681587E1,2.7268217E0],"tree_param":{"num_deleted":"0","num_feature":"15","num_nodes":"15","size_leaf_vector":"1"}},{"base_weights":[2.0752277E-3,1.1944641E0,-1.5202625E0,6.0631037E-1,1.4263899E0,-1.7313997E0,-7.0562E-2,7.2885742E-3,-6.168867E-3,1.1880004E-2,1.5800728E-2,-1.7688947E-2,9.340149E-3,3.2251116E-3,-1.5978223E-2],"categories":[],"categories_nodes":[],"categories_segments":[],"categories_sizes":[],"default_left":[0,0,0,0,0,0,0,0,0,0,0,0,0,0,0],"id":7,"left_children":[1,3,5,7,9,11,13,-1,-1,-1,-1,-1,-1,-1,-1],"loss_changes":[5.319386E2,2.155101E1,3.927542E1,7.6767387E0,2.4135742E0,1.2876282E1,1.0964286E1,0E0,0E0,0E0,0E0,0E0,0E0,0E0,0E0],"parents":[2147483647,0,0,1,1,2,2,3,3,4,4,5,5,6,6],"right_children":[2,4,6,8,10,12,14,-1,-1,-1,-1,-1,-1,-1,-1],"split_conditions":[1E0,3.611111E-1,6.388889E-1,1E0,5.648148E-1,8.3116883E-1,4.032258E-1,7.2885742E-3,-6.168867E-3,1.1880004E-2,1.5800728E-2,-1.7688947E-2,9.340149E-3,3.2251116E-3,-1.5978223E-2],"split_indices":[13,5,5,6,5,1,4,0,0,0,0,0,0,0,0],"split_type":[0,0,0,0,0,0,0,0,0,0,0,0,0,0,0],"sum_hessian":[2.910435E2,1.6332928E2,1.27714195E2,4.721314E1,1.1611615E2,1.1130868E2,1.6405521E1,4.3281116E1,3.9320197E0,4.8936752E1,6.71794E1,1.10096275E2,1.2124009E0,1.3674839E1,2.7306826E0],"tree_param":{"num_deleted":"0","num_feature":"15","num_nodes":"15","size_leaf_vector":"1"}},{"base_weights":[2.0955345E-3,1.185367E0,-1.503626E0,6.008927E-1,1.4162368E0,-1.7120271E0,-7.060019E-2,2.1393516E-3,1.0205256E-2,1.0461113E-2,1.5092039E-2,-1.749131E-2,9.297362E-3,3.1965363E-3,-1.5846388E-2],"categories":[],"categories_nodes":[],"categories_segments":[],"categories_sizes":[],"default_left":[0,0,0,0,0,0,0,0,0,0,0,0,0,0,0],"id":8,"left_children":[1,3,5,7,9,11,13,-1,-1,-1,-1,-1,-1,-1,-1],"loss_changes":[5.216954E2,2.1273483E1,3.8359467E1,7.602476E0,2.4401093E0,1.2648376E1,1.078882E1,0E0,0E0,0E0,0E0,0E0,0E0,0E0,0E0],"parents":[2147483647,0,0,1,1,2,2,3,3,4,4,5,5,6,6],"right_children":[2,4,6,8,10,12,14,-1,-1,-1,-1,-1,-1,-1,-1],"split_conditions":[1E0,3.611111E-1,6.388889E-1,2.7419356E-1,1E0,8.3116883E-1,4.032258E-1,2.1393516E-3,1.0205256E-2,1.0461113E-2,1.5092039E-2,-1.749131E-2,9.297362E-3,3.1965363E-3,-1.5846388E-2],"split_indices":[13,5,5,4,14,1,4,0,0,0,0,0,0,0,0],"split_type":[0,0,0,0,0,0,0,0,0,0,0,0,0,0,0],"sum_hessian":[2.90811E2,1.6296092E2,1.278501E2,4.7163544E1,1.1579737E2,1.11447845E2,1.6402254E1,2.5322567E1,2.1840977E1,2.5706373E1,9.0091E1,1.1023743E2,1.2104129E0,1.3668085E1,2.7341685E0],"tree_param":{"num_deleted":"0","num_feature":"15","num_nodes":"15","size_leaf_vector":"1"}},{"base_weights":[2.1475186E-3,1.1764436E0,-1.4873899E0,5.9573E-1,1.4062463E0,-1.6931506E0,-7.063356E-2,7.1748113E-3,-6.155918E-3,8.773637E-3,1.4670817E-2,-1.7298767E-2,9.254976E-3,3.16822E-3,-1.5717167E-2],"categories":[],"categories_nodes":[],"categories_segments":[],"categories_sizes":[],"default_left":[0,0,0,0,0,0,0,0,0,0,0,0,0,0,0],"id":9,"left_children":[1,3,5,7,9,11,13,-1,-1,-1,-1,-1,-1,-1,-1],"loss_changes":[5.1172412E2,2.0992844E1,3.7476013E1,7.537842E0,2.460266E0,1.2427032E1,1.0617041E1,0E0,0E0,0E0,0E0,0E0,0E0,0E0,0E0],"parents":[2147483647,0,0,1,1,2,2,3,3,4,4,5,5,6,6],"right_children":[2,4,6,8,10,12,14,-1,-1,-1,-1,-1,-1,-1,-1],"split_conditions":[1E0,3.611111E-1,6.388889E-1,1E0,1.1290322E-1,8.3116883E-1,4.032258E-1,7.1748113E-3,-6.155918E-3,8.773637E-3,1.4670817E-2,-1.7298767E-2,9.254976E-3,3.16822E-3,-1.5717167E-2],"split_indices":[13,5,5,6,4,1,4,0,0,0,0,0,0,0,0],"split_type":[0,0,0,0,0,0,0,0,0,0,0,0,0,0,0],"sum_hessian":[2.9055417E2,1.6258688E2,1.2796728E2,4.71162E1,1.1547069E2,1.11568665E2,1.6398613E1,4.3183475E1,3.9327252E0,1.3502916E1,1.0196777E2,1.10360275E2,1.2083867E0,1.3661325E1,2.737287E0],"tree_param":{"num_deleted":"0","num_feature":"15","num_nodes":"15","size_leaf_vector":"1"}},{"base_weights":[2.1537172E-3,1.1676036E0,-1.4715384E0,5.9041977E-1,1.396433E0,-1.6747496E0,-7.066292E-2,2.0661843E-3,1.0074745E-2,1.1582148E-2,1.5504362E-2,-1.7111104E-2,9.212987E-3,3.140154E-3,-1.5590486E-2],"categories":[],"categories_nodes":[],"categories_segments":[],"categories_sizes":[],"default_left":[0,0,0,0,0,0,0,0,0,0,0,0,0,0,0],"id":10,"left_children":[1,3,5,7,9,11,13,-1,-1,-1,-1,-1,-1,-1,-1],"loss_changes":[5.0197278E2,2.0730469E1,3.6623383E1,7.485504E0,2.4648285E0,1.2212036E1,1.0448843E1,0E0,0E0,0E0,0E0,0E0,0E0,0E0,0E0],"parents":[2147483647,0,0,1,1,2,2,3,3,4,4,5,5,6,6],"right_children":[2,4,6,8,10,12,14,-1,-1,-1,-1,-1,-1,-1,-1],"split_conditions":[1E0,3.611111E-1,6.388889E-1,2.7419356E-1,5.648148E-1,8.3116883E-1,4.032258E-1,2.0661843E-3,1.0074745E-2,1.1582148E-2,1.5504362E-2,-1.7111104E-2,9.212987E-3,3.140154E-3,-1.5590486E-2],"split_indices":[13,5,5,4,5,1,4,0,0,0,0,0,0,0,0],"split_type":[0,0,0,0,0,0,0,0,0,0,0,0,0,0,0],"sum_hessian":[2.902666E2,1.6220032E2,1.2806627E2,4.7065536E1,1.1513479E2,1.1167167E2,1.6394608E1,2.5288664E1,2.1776875E1,4.8552544E1,6.658224E1,1.1046534E2,1.2063228E0,1.3654562E1,2.7400453E0],"tree_param":{"num_deleted":"0","num_feature":"15","num_nodes":"15","size_leaf_vector":"1"}},{"base_weights":[2.2110112E-3,1.158954E0,-1.4560571E0,5.853617E-1,1.3868027E0,-1.6568054E0,-7.0688136E-2,7.063308E-3,-6.1423224E-3,1.0171928E-2,1.4799396E-2,-1.6928127E-2,9.171389E-3,3.1123387E-3,-1.5466268E-2],"categories":[],"categories_nodes":[],"categories_segments":[],"categories_sizes":[],"default_left":[0,0,0,0,0,0,0,0,0,0,0,0,0,0,0],"id":11,"left_children":[1,3,5,7,9,11,13,-1,-1,-1,-1,-1,-1,-1,-1],"loss_changes":[4.9248727E2,2.0466248E1,3.580017E1,7.4018E0,2.4806976E0,1.2002991E1,1.0284132E1,0E0,0E0,0E0,0E0,0E0,0E0,0E0,0E0],"parents":[2147483647,0,0,1,1,2,2,3,3,4,4,5,5,6,6],"right_children":[2,4,6,8,10,12,14,-1,-1,-1,-1,-1,-1,-1,-1],"split_conditions":[1E0,3.611111E-1,6.388889E-1,1E0,1E0,8.3116883E-1,4.032258E-1,7.063308E-3,-6.1423224E-3,1.0171928E-2,1.4799396E-2,-1.6928127E-2,9.171389E-3,3.1123387E-3,-1.5466268E-2],"split_indices":[13,5,5,6,14,1,4,0,0,0,0,0,0,0,0],"split_type":[0,0,0,0,0,0,0,0,0,0,0,0,0,0,0],"sum_hessian":[2.8995786E2,1.6181026E2,1.2814761E2,4.7017155E1,1.14793106E2,1.1175736E2,1.6390245E1,4.3083714E1,3.9334404E0,2.5503809E1,8.92893E1,1.1055314E2,1.2042226E0,1.3647796E1,2.7424505E0],"tree_param":{"num_deleted":"0","num_feature":"15","num_nodes":"15","size_leaf_vector":"1"}},{"base_weights":[2.2227746E-3,1.1503687E0,-1.440931E0,5.801555E-1,1.3773197E0,-1.6392989E0,-7.070934E-2,1.9946168E-3,9.94705E-3,1.0430192E-2,1.4825824E-2,-1.6749643E-2,9.130175E-3,3.0847716E-3,-1.5344444E-2],"categories":[],"categories_nodes":[],"categories_segments":[],"categories_sizes":[],"default_left":[0,0,0,0,0,0,0,0,0,0,0,0,0,0,0],"id":12,"left_children":[1,3,5,7,9,11,13,-1,-1,-1,-1,-1,-1,-1,-1],"loss_changes":[4.8320352E2,2.0218475E1,3.500482E1,7.3713436E0,2.5160522E0,1.1799805E1,1.0122811E1,0E0,0E0,0E0,0E0,0E0,0E0,0E0,0E0],"parents":[2147483647,0,0,1,1,2,2,3,3,4,4,5,5,6,6],"right_children":[2,4,6,8,10,12,14,-1,-1,-1,-1,-1,-1,-1,-1],"split_conditions":[1E0,3.611111E-1,6.388889E-1,2.7419356E-1,2.4193548E-1,8.3116883E-1,4.032258E-1,1.9946168E-3,9.94705E-3,1.0430192E-2,1.4825824E-2,-1.6749643E-2,9.130175E-3,3.0847716E-3,-1.5344444E-2],"split_indices":[13,5,5,4,4,1,4,0,0,0,0,0,0,0,0],"split_type":[0,0,0,0,0,0,0,0,0,0,0,0,0,0,0],"sum_hessian":[2.8962164E2,1.6140987E2,1.2821178E2,4.696552E1,1.1444435E2,1.1182624E2,1.6385538E1,2.525459E1,2.1710928E1,3.0018452E1,8.44259E1,1.1062415E2,1.2020864E0,1.3641027E1,2.7445102E0],"tree_param":{"num_deleted":"0","num_feature":"15","num_nodes":"15","size_leaf_vector":"1"}},{"base_weights":[2.2739328E-3,1.1419617E0,-1.4261472E0,5.751987E-1,1.368007E0,-1.6222136E0,-7.072647E-2,6.9539854E-3,-6.1281016E-3,1.1298265E-2,1.5224386E-2,-1.657548E-2,9.08934E-3,3.0574526E-3,-1.5224945E-2],"categories":[],"categories_nodes":[],"categories_segments":[],"categories_sizes":[],"default_left":[0,0,0,0,0,0,0,0,0,0,0,0,0,0,0],"id":13,"left_children":[1,3,5,7,9,11,13,-1,-1,-1,-1,-1,-1,-1,-1],"loss_changes":[4.741646E2,1.9968155E1,3.4236206E1,7.268507E0,2.5131378E0,1.1602051E1,9.964796E0,0E0,0E0,0E0,0E0,0E0,0E0,0E0,0E0],"parents":[2147483647,0,0,1,1,2,2,3,3,4,4,5,5,6,6],"right_children":[2,4,6,8,10,12,14,-1,-1,-1,-1,-1,-1,-1,-1],"split_conditions":[1E0,3.611111E-1,6.388889E-1,1E0,5.648148E-1,8.3116883E-1,4.032258E-1,6.9539854E-3,-6.1281016E-3,1.1298265E-2,1.5224386E-2,-1.657548E-2,9.08934E-3,3.0574526E-3,-1.5224945E-2],"split_indices":[13,5,5,6,5,1,4,0,0,0,0,0,0,0,0],"split_type":[0,0,0,0,0,0,0,0,0,0,0,0,0,0,0],"sum_hessian":[2.8926367E2,1.610044E2,1.2825928E2,4.6916183E1,1.1408822E2,1.1187879E2,1.6380491E1,4.2982018E1,3.934164E0,4.8146976E1,6.5941246E1,1.1067888E2,1.1999156E0,1.363426E1,2.746231E0],"tree_param":{"num_deleted":"0","num_feature":"15","num_nodes":"15","size_leaf_vector":"1"}},{"base_weights":[2.291342E-3,1.1336287E0,-1.4116929E0,5.700933E-1,1.3588539E0,-1.6055326E0,-7.073995E-2,1.924609E-3,9.822058E-3,1.0255547E-2,1.4640525E-2,-1.6405463E-2,9.048878E-3,3.030375E-3,-1.5107702E-2],"categories":[],"categories_nodes":[],"categories_segments":[],"categories_sizes":[],"default_left":[0,0,0,0,0,0,0,0,0,0,0,0,0,0,0],"id":14,"left_children":[1,3,5,7,9,11,13,-1,-1,-1,-1,-1,-1,-1,-1],"loss_changes":[4.6532E2,1.973468E1,3.349298E1,7.259841E0,2.5211334E0,1.1409637E1,9.809991E0,0E0,0E0,0E0,0E0,0E0,0E0,0E0,0E0],"parents":[2147483647,0,0,1,1,2,2,3,3,4,4,5,5,6,6],"right_children":[2,4,6,8,10,12,14,-1,-1,-1,-1,-1,-1,-1,-1],"split_conditions":[1E0,3.611111E-1,6.388889E-1,2.7419356E-1,2.4193548E-1,8.3116883E-1,4.032258E-1,1.924609E-3,9.822058E-3,1.0255547E-2,1.4640525E-2,-1.6405463E-2,9.048878E-3,3.030375E-3,-1.5107702E-2],"split_indices":[13,5,5,4,4,1,4,0,0,0,0,0,0,0,0],"split_type":[0,0,0,0,0,0,0,0,0,0,0,0,0,0,0],"sum_hessian":[2.888804E2,1.605898E2,1.282906E2,4.6863647E1,1.1372616E2,1.1191549E2,1.6375113E1,2.5220383E1,2.1643265E1,2.9862366E1,8.386379E1,1.1071778E2,1.1977108E0,1.3627492E1,2.7476203E0],"tree_param":{"num_deleted":"0","num_feature":"15","num_nodes":"15","size_leaf_vector":"1"}},{"base_weights":[2.34134E-3,1.1254559E0,-1.397556E0,5.652352E-1,1.3498461E0,-1.5892409E0,-7.074978E-2,-1.1181923E-3,7.849348E-3,9.795857E-3,1.4435677E-2,-1.6239438E-2,9.008785E-3,3.0035393E-3,-1.4992657E-2],"categories":[],"categories_nodes":[],"categories_segments":[],"categories_sizes":[],"default_left":[0,0,0,0,0,0,0,0,0,0,0,0,0,0,0],"id":15,"left_children":[1,3,5,7,9,11,13,-1,-1,-1,-1,-1,-1,-1,-1],"loss_changes":[4.5670135E2,1.9497482E1,3.2773865E1,7.199956E0,2.5542603E0,1.1222351E1,9.658317E0,0E0,0E0,0E0,0E0,0E0,0E0,0E0,0E0],"parents":[2147483647,0,0,1,1,2,2,3,3,4,4,5,5,6,6],"right_children":[2,4,6,8,10,12,14,-1,-1,-1,-1,-1,-1,-1,-1],"split_conditions":[1E0,3.611111E-1,6.388889E-1,1E0,1E0,8.3116883E-1,4.032258E-1,-1.1181923E-3,7.849348E-3,9.795857E-3,1.4435677E-2,-1.6239438E-2,9.008785E-3,3.0035393E-3,-1.4992657E-2],"split_indices":[13,5,5,14,14,1,4,0,0,0,0,0,0,0,0],"split_type":[0,0,0,0,0,0,0,0,0,0,0,0,0,0,0],"sum_hessian":[2.884768E2,1.6017061E2,1.283062E2,4.6813446E1,1.13357155E2,1.1193678E2,1.6369411E1,1.1589329E1,3.5224117E1,2.5210724E1,8.814643E1,1.1074131E2,1.1954727E0,1.3620728E1,2.748685E0],"tree_param":{"num_deleted":"0","num_feature":"15","num_nodes":"15","size_leaf_vector":"1"}},{"base_weights":[2.3718344E-3,1.1173481E0,-1.3837245E0,5.603073E-1,1.3409708E0,-1.5733231E0,-7.075601E-2,1.8569925E-3,9.700419E-3,1.102585E-2,1.4960113E-2,-1.6077248E-2,8.969052E-3,2.9769428E-3,-1.48797445E-2],"categories":[],"categories_nodes":[],"categories_segments":[],"categories_sizes":[],"default_left":[0,0,0,0,0,0,0,0,0,0,0,0,0,0,0],"id":16,"left_children":[1,3,5,7,9,11,13,-1,-1,-1,-1,-1,-1,-1,-1],"loss_changes":[4.482679E2,1.9272385E1,3.207785E1,7.1511564E0,2.5632782E0,1.1039886E1,9.509687E0,0E0,0E0,0E0,0E0,0E0,0E0,0E0,0E0],"parents":[2147483647,0,0,1,1,2,2,3,3,4,4,5,5,6,6],"right_children":[2,4,6,8,10,12,14,-1,-1,-1,-1,-1,-1,-1,-1],"split_conditions":[1E0,3.611111E-1,6.388889E-1,2.7419356E-1,5.648148E-1,8.3116883E-1,4.032258E-1,1.8569925E-3,9.700419E-3,1.102585E-2,1.4960113E-2,-1.6077248E-2,8.969052E-3,2.9769428E-3,-1.48797445E-2],"split_indices":[13,5,5,4,5,1,4,0,0,0,0,0,0,0,0],"split_type":[0,0,0,0,0,0,0,0,0,0,0,0,0,0,0],"sum_hessian":[2.880534E2,1.5974687E2,1.2830653E2,4.6763996E1,1.1298287E2,1.11943146E2,1.6363398E1,2.5188305E1,2.157569E1,4.7720665E1,6.526221E1,1.1074994E2,1.1932024E0,1.3613966E1,2.7494316E0],"tree_param":{"num_deleted":"0","num_feature":"15","num_nodes":"15","size_leaf_vector":"1"}},{"base_weights":[2.4257044E-3,1.1094006E0,-1.3701874E0,5.555438E-1,1.3322542E0,-1.5577651E0,-7.0758946E-2,6.7519685E-3,-6.1988E-3,8.040176E-3,1.3938796E-2,-1.5918747E-2,8.929674E-3,2.9505815E-3,-1.4768905E-2],"categories":[],"categories_nodes":[],"categories_segments":[],"categories_sizes":[],"default_left":[0,0,0,0,0,0,0,0,0,0,0,0,0,0,0],"id":17,"left_children":[1,3,5,7,9,11,13,-1,-1,-1,-1,-1,-1,-1,-1],"loss_changes":[4.4004486E2,1.904747E1,3.14039E1,7.1290455E0,2.5774078E0,1.0862152E1,9.364023E0,0E0,0E0,0E0,0E0,0E0,0E0,0E0,0E0],"parents":[2147483647,0,0,1,1,2,2,3,3,4,4,5,5,6,6],"right_children":[2,4,6,8,10,12,14,-1,-1,-1,-1,-1,-1,-1,-1],"split_conditions":[1E0,3.611111E-1,6.388889E-1,1E0,1.1290322E-1,8.3116883E-1,4.032258E-1,6.7519685E-3,-6.1988E-3,8.040176E-3,1.3938796E-2,-1.5918747E-2,8.929674E-3,2.9505815E-3,-1.4768905E-2],"split_indices":[13,5,5,6,4,1,4,0,0,0,0,0,0,0,0],"split_type":[0,0,0,0,0,0,0,0,0,0,0,0,0,0,0],"sum_hessian":[2.8760788E2,1.593158E2,1.2829207E2,4.6713005E1,1.1260279E2,1.11935E2,1.6357077E1,4.278341E1,3.9295955E0,1.3231658E1,9.937113E1,1.10744095E2,1.1909003E0,1.3607208E1,2.7498677E0],"tree_param":{"num_deleted":"0","num_feature":"15","num_nodes":"15","size_leaf_vector":"1"}},{"base_weights":[2.4276215E-3,1.1014949E0,-1.3569348E0,5.506253E-1,1.3236594E0,-1.5425543E0,-7.075869E-2,-1.2073813E-3,7.691416E-3,9.531069E-3,1.4177852E-2,-1.5763804E-2,8.890649E-3,2.9244532E-3,-1.4660084E-2],"categories":[],"categories_nodes":[],"categories_segments":[],"categories_sizes":[],"default_left":[0,0,0,0,0,0,0,0,0,0,0,0,0,0,0],"id":18,"left_children":[1,3,5,7,9,11,13,-1,-1,-1,-1,-1,-1,-1,-1],"loss_changes":[4.3198172E2,1.883722E1,3.0751083E1,7.084649E0,2.5975037E0,1.0688843E1,9.22125E0,0E0,0E0,0E0,0E0,0E0,0E0,0E0,0E0],"parents":[2147483647,0,0,1,1,2,2,3,3,4,4,5,5,6,6],"right_children":[2,4,6,8,10,12,14,-1,-1,-1,-1,-1,-1,-1,-1],"split_conditions":[1E0,3.611111E-1,6.388889E-1,1E0,1E0,8.3116883E-1,4.032258E-1,-1.2073813E-3,7.691416E-3,9.531069E-3,1.4177852E-2,-1.5763804E-2,8.890649E-3,2.9244532E-3,-1.4660084E-2],"split_indices":[13,5,5,14,14,1,4,0,0,0,0,0,0,0,0],"split_type":[0,0,0,0,0,0,0,0,0,0,0,0,0,0,0],"sum_hessian":[2.8713803E2,1.5887479E2,1.2826323E2,4.6659176E1,1.12215614E2,1.1191277E2,1.6350454E1,1.156737E1,3.5091805E1,2.498421E1,8.723141E1,1.1072421E2,1.1885678E0,1.3600455E1,2.7499993E0],"tree_param":{"num_deleted":"0","num_feature":"15","num_nodes":"15","size_leaf_vector":"1"}},{"base_weights":[2.4567097E-3,1.0937052E0,-1.3439559E0,5.4583704E-1,1.3151957E0,-1.5276768E0,-7.075513E-2,1.7415562E-3,9.536123E-3,1.076263E-2,1.471088E-2,-1.561228E-2,8.851969E-3,2.8985573E-3,-1.4553221E-2],"categories":[],"categories_nodes":[],"categories_segments":[],"categories_sizes":[],"default_left":[0,0,0,0,0,0,0,0,0,0,0,0,0,0,0],"id":19,"left_children":[1,3,5,7,9,11,13,-1,-1,-1,-1,-1,-1,-1,-1],"loss_changes":[4.2411142E2,1.8628998E1,3.0118317E1,7.0496206E0,2.6192017E0,1.0519928E1,9.081291E0,0E0,0E0,0E0,0E0,0E0,0E0,0E0,0E0],"parents":[2147483647,0,0,1,1,2,2,3,3,4,4,5,5,6,6],"right_children":[2,4,6,8,10,12,14,-1,-1,-1,-1,-1,-1,-1,-1],"split_conditions":[1E0,3.611111E-1,6.388889E-1,2.7419356E-1,5.648148E-1,8.3116883E-1,4.032258E-1,1.7415562E-3,9.536123E-3,1.076263E-2,1.471088E-2,-1.561228E-2,8.851969E-3,2.8985573E-3,-1.4553221E-2],"split_indices":[13,5,5,4,5,1,4,0,0,0,0,0,0,0,0],"split_type":[0,0,0,0,0,0,0,0,0,0,0,0,0,0,0],"sum_hessian":[2.8665396E2,1.5843352E2,1.2822044E2,4.6608738E1,1.11824776E2,1.1187691E2,1.6343544E1,2.5130098E1,2.1478642E1,4.7273582E1,6.455119E1,1.10690704E2,1.1862053E0,1.3593711E1,2.7498336E0],"tree_param":{"num_deleted":"0","num_feature":"15","num_nodes":"15","size_leaf_vector":"1"}},{"base_weights":[2.509111E-3,1.0860672E0,-1.3312415E0,5.4121023E-1,1.3068788E0,-1.5131214E0,-7.0748426E-2,6.6027665E-3,-6.2287436E-3,9.721337E-3,1.4133305E-2,-1.5464055E-2,8.81363E-3,2.872893E-3,-1.4448268E-2],"categories":[],"categories_nodes":[],"categories_segments":[],"categories_sizes":[],"default_left":[0,0,0,0,0,0,0,0,0,0,0,0,0,0,0],"id":20,"left_children":[1,3,5,7,9,11,13,-1,-1,-1,-1,-1,-1,-1,-1],"loss_changes":[4.164337E2,1.8420395E1,2.9504868E1,7.0028086E0,2.63237E0,1.0355164E1,8.94408E0,0E0,0E0,0E0,0E0,0E0,0E0,0E0,0E0],"parents":[2147483647,0,0,1,1,2,2,3,3,4,4,5,5,6,6],"right_children":[2,4,6,8,10,12,14,-1,-1,-1,-1,-1,-1,-1,-1],"split_conditions":[1E0,3.611111E-1,6.388889E-1,1E0,2.4193548E-1,8.3116883E-1,4.032258E-1,6.6027665E-3,-6.2287436E-3,9.721337E-3,1.4133305E-2,-1.5464055E-2,8.81363E-3,2.872893E-3,-1.4448268E-2],"split_indices":[13,5,5,6,4,1,4,0,0,0,0,0,0,0,0],"split_type":[0,0,0,0,0,0,0,0,0,0,0,0,0,0,0],"sum_hessian":[2.8614984E2,1.579857E2,1.2816414E2,4.6556843E1,1.1142886E2,1.1182779E2,1.633635E1,4.2629364E1,3.927479E0,2.9330175E1,8.209869E1,1.10643974E2,1.1838135E0,1.3586972E1,2.7493768E0],"tree_param":{"num_deleted":"0","num_feature":"15","num_nodes":"15","size_leaf_vector":"1"}},{"base_weights":[2.517936E-3,1.0784706E0,-1.3187823E0,5.3642696E-1,1.2986823E0,-1.4988759E0,-7.073899E-2,-1.2932937E-3,7.5379717E-3,9.276126E-3,1.3932847E-2,-1.5319008E-2,8.775626E-3,2.8474526E-3,-1.4345172E-2],"categories":[],"categories_nodes":[],"categories_segments":[],"categories_sizes":[],"default_left":[0,0,0,0,0,0,0,0,0,0,0,0,0,0,0],"id":21,"left_children":[1,3,5,7,9,11,13,-1,-1,-1,-1,-1,-1,-1,-1],"loss_changes":[4.089036E2,1.8226166E1,2.8909897E1,6.971793E0,2.6401825E0,1.0194397E1,8.809542E0,0E0,0E0,0E0,0E0,0E0,0E0,0E0,0E0],"parents":[2147483647,0,0,1,1,2,2,3,3,4,4,5,5,6,6],"right_children":[2,4,6,8,10,12,14,-1,-1,-1,-1,-1,-1,-1,-1],"split_conditions":[1E0,3.611111E-1,6.388889E-1,1E0,1E0,8.3116883E-1,4.032258E-1,-1.2932937E-3,7.5379717E-3,9.276126E-3,1.3932847E-2,-1.5319008E-2,8.775626E-3,2.8474526E-3,-1.4345172E-2],"split_indices":[13,5,5,14,14,1,4,0,0,0,0,0,0,0,0],"split_type":[0,0,0,0,0,0,0,0,0,0,0,0,0,0,0],"sum_hessian":[2.8562433E2,1.5752963E2,1.2809471E2,4.6502163E1,1.11027466E2,1.1176584E2,1.6328876E1,1.1545602E1,3.4956562E1,2.475063E1,8.627683E1,1.1058445E2,1.1813933E0,1.3580241E1,2.7486353E0],"tree_param":{"num_deleted":"0","num_feature":"15","num_nodes":"15","size_leaf_vector":"1"}},{"base_weights":[2.5455893E-3,1.0709743E0,-1.3065695E0,5.317723E-1,1.290596E0,-1.4849293E0,-7.0726484E-2,1.6296811E-3,9.376637E-3,1.051036E-2,1.4474193E-2,-1.5177023E-2,8.737954E-3,2.8222387E-3,-1.4243879E-2],"categories":[],"categories_nodes":[],"categories_segments":[],"categories_sizes":[],"default_left":[0,0,0,0,0,0,0,0,0,0,0,0,0,0,0],"id":22,"left_children":[1,3,5,7,9,11,13,-1,-1,-1,-1,-1,-1,-1,-1],"loss_changes":[4.0154617E2,1.803276E1,2.833255E1,6.950327E0,2.6722107E0,1.0037506E1,8.677608E0,0E0,0E0,0E0,0E0,0E0,0E0,0E0,0E0],"parents":[2147483647,0,0,1,1,2,2,3,3,4,4,5,5,6,6],"right_children":[2,4,6,8,10,12,14,-1,-1,-1,-1,-1,-1,-1,-1],"split_conditions":[1E0,3.611111E-1,6.388889E-1,2.7419356E-1,5.648148E-1,8.3116883E-1,4.032258E-1,1.6296811E-3,9.376637E-3,1.051036E-2,1.4474193E-2,-1.5177023E-2,8.737954E-3,2.8222387E-3,-1.4243879E-2],"split_indices":[13,5,5,4,5,1,4,0,0,0,0,0,0,0,0],"split_type":[0,0,0,0,0,0,0,0,0,0,0,0,0,0,0],"sum_hessian":[2.8508563E2,1.5707303E2,1.2801259E2,4.6450893E1,1.1062214E2,1.1169145E2,1.6321138E1,2.5071625E1,2.1379269E1,4.681322E1,6.3808918E1,1.10512505E2,1.1789455E0,1.3573522E1,2.7476158E0],"tree_param":{"num_deleted":"0","num_feature":"15","num_nodes":"15","size_leaf_vector":"1"}},{"base_weights":[2.596523E-3,1.0636219E0,-1.2945949E0,5.272763E-1,1.2826462E0,-1.4712714E0,-7.071125E-2,6.457699E-3,-6.2562325E-3,9.472448E-3,1.3897333E-2,-1.5037997E-2,8.700606E-3,2.7972471E-3,-1.4144342E-2],"categories":[],"categories_nodes":[],"categories_segments":[],"categories_sizes":[],"default_left":[0,0,0,0,0,0,0,0,0,0,0,0,0,0,0],"id":23,"left_children":[1,3,5,7,9,11,13,-1,-1,-1,-1,-1,-1,-1,-1],"loss_changes":[3.9436533E2,1.7838638E1,2.777214E1,6.87914E0,2.6780243E0,9.884293E0,8.548216E0,0E0,0E0,0E0,0E0,0E0,0E0,0E0,0E0],"parents":[2147483647,0,0,1,1,2,2,3,3,4,4,5,5,6,6],"right_children":[2,4,6,8,10,12,14,-1,-1,-1,-1,-1,-1,-1,-1],"split_conditions":[1E0,3.611111E-1,6.388889E-1,1E0,2.4193548E-1,8.3116883E-1,4.032258E-1,6.457699E-3,-6.2562325E-3,9.472448E-3,1.3897333E-2,-1.5037997E-2,8.700606E-3,2.7972471E-3,-1.4144342E-2],"split_indices":[13,5,5,6,4,1,4,0,0,0,0,0,0,0,0],"split_type":[0,0,0,0,0,0,0,0,0,0,0,0,0,0,0],"sum_hessian":[2.8452878E2,1.5661064E2,1.2791814E2,4.639823E1,1.1021241E2,1.11604996E2,1.6313135E1,4.24728E1,3.9254286E0,2.905537E1,8.1157036E1,1.1042853E2,1.1764708E0,1.3566811E1,2.7463248E0],"tree_param":{"num_deleted":"0","num_feature":"15","num_nodes":"15","size_leaf_vector":"1"}},{"base_weights":[2.6041823E-3,1.0563034E0,-1.2828504E0,5.226227E-1,1.2748064E0,-1.457892E0,-7.0693456E-2,-1.3760233E-3,7.3888004E-3,1.0352987E-2,1.4319787E-2,-1.49018215E-2,8.663582E-3,2.7724758E-3,-1.4046524E-2],"categories":[],"categories_nodes":[],"categories_segments":[],"categories_sizes":[],"default_left":[0,0,0,0,0,0,0,0,0,0,0,0,0,0,0],"id":24,"left_children":[1,3,5,7,9,11,13,-1,-1,-1,-1,-1,-1,-1,-1],"loss_changes":[3.8731808E2,1.7658081E1,2.7227951E1,6.861211E0,2.688324E0,9.734711E0,8.421308E0,0E0,0E0,0E0,0E0,0E0,0E0,0E0,0E0],"parents":[2147483647,0,0,1,1,2,2,3,3,4,4,5,5,6,6],"right_children":[2,4,6,8,10,12,14,-1,-1,-1,-1,-1,-1,-1,-1],"split_conditions":[1E0,3.611111E-1,6.388889E-1,1E0,5.648148E-1,8.3116883E-1,4.032258E-1,-1.3760233E-3,7.3888004E-3,1.0352987E-2,1.4319787E-2,-1.49018215E-2,8.663582E-3,2.7724758E-3,-1.4046524E-2],"split_indices":[13,5,5,14,5,1,4,0,0,0,0,0,0,0,0],"split_type":[0,0,0,0,0,0,0,0,0,0,0,0,0,0,0],"sum_hessian":[2.839524E2,1.5614067E2,1.2781172E2,4.6342842E1,1.0979783E2,1.11506836E2,1.6304878E1,1.1524059E1,3.4818783E1,4.6510162E1,6.3287663E1,1.1033287E2,1.17397E0,1.3560111E1,2.744768E0],"tree_param":{"num_deleted":"0","num_feature":"15","num_nodes":"15","size_leaf_vector":"1"}},{"base_weights":[2.6372774E-3,1.0490913E0,-1.2713282E0,5.1809657E-1,1.2670851E0,-1.4447812E0,-7.067282E-2,1.5212517E-3,9.221713E-3,8.940728E-3,1.3626533E-2,-1.4768398E-2,8.626873E-3,2.7479245E-3,-1.39503665E-2],"categories":[],"categories_nodes":[],"categories_segments":[],"categories_sizes":[],"default_left":[0,0,0,0,0,0,0,0,0,0,0,0,0,0,0],"id":25,"left_children":[1,3,5,7,9,11,13,-1,-1,-1,-1,-1,-1,-1,-1],"loss_changes":[3.8043323E2,1.7478714E1,2.6699295E1,6.8530836E0,2.7165222E0,9.588593E0,8.296813E0,0E0,0E0,0E0,0E0,0E0,0E0,0E0,0E0],"parents":[2147483647,0,0,1,1,2,2,3,3,4,4,5,5,6,6],"right_children":[2,4,6,8,10,12,14,-1,-1,-1,-1,-1,-1,-1,-1],"split_conditions":[1E0,3.611111E-1,6.388889E-1,2.7419356E-1,1E0,8.3116883E-1,4.032258E-1,1.5212517E-3,9.221713E-3,8.940728E-3,1.3626533E-2,-1.4768398E-2,8.626873E-3,2.7479245E-3,-1.39503665E-2],"split_indices":[13,5,5,4,14,1,4,0,0,0,0,0,0,0,0],"split_type":[0,0,0,0,0,0,0,0,0,0,0,0,0,0,0],"sum_hessian":[2.833645E2,1.5567076E2,1.2769374E2,4.6290882E1,1.09379875E2,1.1139737E2,1.6296375E1,2.5013016E1,2.1277864E1,2.4420326E1,8.495955E1,1.1022592E2,1.1714436E0,1.3553424E1,2.7429516E0],"tree_param":{"num_deleted":"0","num_feature":"15","num_nodes":"15","size_leaf_vector":"1"}},{"base_weights":[2.6801191E-3,1.0419903E0,-1.2600212E0,5.137263E-1,1.2594539E0,-1.4319301E0,-7.064973E-2,6.316592E-3,-6.281347E-3,7.2738007E-3,1.3225785E-2,-1.4637634E-2,8.590476E-3,2.7235895E-3,-1.3855832E-2],"categories":[],"categories_nodes":[],"categories_segments":[],"categories_sizes":[],"default_left":[0,0,0,0,0,0,0,0,0,0,0,0,0,0,0],"id":26,"left_children":[1,3,5,7,9,11,13,-1,-1,-1,-1,-1,-1,-1,-1],"loss_changes":[3.7370255E2,1.7296494E1,2.6185593E1,6.757924E0,2.7311554E0,9.445755E0,8.174678E0,0E0,0E0,0E0,0E0,0E0,0E0,0E0,0E0],"parents":[2147483647,0,0,1,1,2,2,3,3,4,4,5,5,6,6],"right_children":[2,4,6,8,10,12,14,-1,-1,-1,-1,-1,-1,-1,-1],"split_conditions":[1E0,3.611111E-1,6.388889E-1,1E0,1.1290322E-1,8.3116883E-1,4.032258E-1,6.316592E-3,-6.281347E-3,7.2738007E-3,1.3225785E-2,-1.4637634E-2,8.590476E-3,2.7235895E-3,-1.3855832E-2],"split_indices":[13,5,5,6,4,1,4,0,0,0,0,0,0,0,0],"split_type":[0,0,0,0,0,0,0,0,0,0,0,0,0,0,0],"sum_hessian":[2.827604E2,1.5519586E2,1.27564545E2,4.6237587E1,1.0895827E2,1.1127691E2,1.628763E1,4.231414E1,3.9234457E0,1.2883876E1,9.6074394E1,1.1010802E2,1.1688925E0,1.3546749E1,2.7408824E0],"tree_param":{"num_deleted":"0","num_feature":"15","num_nodes":"15","size_leaf_vector":"1"}},{"base_weights":[2.678057E-3,1.0349194E0,-1.2489226E0,5.0919724E-1,1.2519301E0,-1.41933E0,-7.062425E-2,-1.4556573E-3,7.243711E-3,1.0113623E-2,1.410356E-2,-1.4509442E-2,8.554386E-3,2.6994683E-3,-1.376288E-2],"categories":[],"categories_nodes":[],"categories_segments":[],"categories_sizes":[],"default_left":[0,0,0,0,0,0,0,0,0,0,0,0,0,0,0],"id":27,"left_children":[1,3,5,7,9,11,13,-1,-1,-1,-1,-1,-1,-1,-1],"loss_changes":[3.6709317E2,1.712741E1,2.5686203E1,6.752763E0,2.748108E0,9.306183E0,8.054846E0,0E0,0E0,0E0,0E0,0E0,0E0,0E0,0E0],"parents":[2147483647,0,0,1,1,2,2,3,3,4,4,5,5,6,6],"right_children":[2,4,6,8,10,12,14,-1,-1,-1,-1,-1,-1,-1,-1],"split_conditions":[1E0,3.611111E-1,6.388889E-1,1E0,5.648148E-1,8.3116883E-1,4.032258E-1,-1.4556573E-3,7.243711E-3,1.0113623E-2,1.410356E-2,-1.4509442E-2,8.554386E-3,2.6994683E-3,-1.376288E-2],"split_indices":[13,5,5,14,5,1,4,0,0,0,0,0,0,0,0],"split_type":[0,0,0,0,0,0,0,0,0,0,0,0,0,0,0],"sum_hessian":[2.8213757E2,1.5471309E2,1.27424484E2,4.618162E1,1.0853146E2,1.1114583E2,1.6278652E1,1.1502773E1,3.467885E1,4.6025745E1,6.250572E1,1.09979515E2,1.1663175E0,1.3540087E1,2.7385652E0],"tree_param":{"num_deleted":"0","num_feature":"15","num_nodes":"15","size_leaf_vector":"1"}},{"base_weights":[2.7101224E-3,1.0279586E0,-1.2380246E0,5.0479424E-1,1.2445278E0,-1.4069716E0,-7.059641E-2,1.416159E-3,9.071122E-3,8.703122E-3,1.3407806E-2,-1.4383725E-2,8.5186E-3,2.6755591E-3,-1.3671464E-2],"categories":[],"categories_nodes":[],"categories_segments":[],"categories_sizes":[],"default_left":[0,0,0,0,0,0,0,0,0,0,0,0,0,0,0],"id":28,"left_children":[1,3,5,7,9,11,13,-1,-1,-1,-1,-1,-1,-1,-1],"loss_changes":[3.6063733E2,1.6959732E1,2.5200607E1,6.757719E0,2.7629242E0,9.169708E0,7.9372563E0,0E0,0E0,0E0,0E0,0E0,0E0,0E0,0E0],"parents":[2147483647,0,0,1,1,2,2,3,3,4,4,5,5,6,6],"right_children":[2,4,6,8,10,12,14,-1,-1,-1,-1,-1,-1,-1,-1],"split_conditions":[1E0,3.611111E-1,6.388889E-1,2.7419356E-1,1E0,8.3116883E-1,4.032258E-1,1.416159E-3,9.071122E-3,8.703122E-3,1.3407806E-2,-1.4383725E-2,8.5186E-3,2.6755591E-3,-1.3671464E-2],"split_indices":[13,5,5,4,14,1,4,0,0,0,0,0,0,0,0],"split_type":[0,0,0,0,0,0,0,0,0,0,0,0,0,0,0],"sum_hessian":[2.8150577E2,1.5423184E2,1.2727393E2,4.612909E1,1.0810276E2,1.11004486E2,1.6269447E1,2.4954393E1,2.1174696E1,2.4171122E1,8.393163E1,1.0984077E2,1.1637189E0,1.353344E1,2.736007E0],"tree_param":{"num_deleted":"0","num_feature":"15","num_nodes":"15","size_leaf_vector":"1"}},{"base_weights":[2.7516766E-3,1.0211024E0,-1.2273221E0,5.0054485E-1,1.2372072E0,-1.3948481E0,-7.05664E-2,1.4029251E-3,9.003593E-3,8.98903E-3,1.3461021E-2,-1.4260412E-2,8.483112E-3,2.6518595E-3,-1.3581553E-2],"categories":[],"categories_nodes":[],"categories_segments":[],"categories_sizes":[],"default_left":[0,0,0,0,0,0,0,0,0,0,0,0,0,0,0],"id":29,"left_children":[1,3,5,7,9,11,13,-1,-1,-1,-1,-1,-1,-1,-1],"loss_changes":[3.543235E2,1.678888E1,2.4728195E1,6.654132E0,2.793396E0,9.036224E0,7.821861E0,0E0,0E0,0E0,0E0,0E0,0E0,0E0,0E0],"parents":[2147483647,0,0,1,1,2,2,3,3,4,4,5,5,6,6],"right_children":[2,4,6,8,10,12,14,-1,-1,-1,-1,-1,-1,-1,-1],"split_conditions":[1E0,3.611111E-1,6.388889E-1,2.7419356E-1,2.4193548E-1,8.3116883E-1,4.032258E-1,1.4029251E-3,9.003593E-3,8.98903E-3,1.3461021E-2,-1.4260412E-2,8.483112E-3,2.6518595E-3,-1.3581553E-2],"split_indices":[13,5,5,4,4,1,4,0,0,0,0,0,0,0,0],"split_type":[0,0,0,0,0,0,0,0,0,0,0,0,0,0,0],"sum_hessian":[2.8085944E2,1.5374623E2,1.27113205E2,4.6075287E1,1.0767094E2,1.1085318E2,1.6260021E1,2.4947376E1,2.112791E1,2.8471922E1,7.919901E1,1.09692085E2,1.1610979E0,1.3526808E1,2.733213E0],"tree_param":{"num_deleted":"0","num_feature":"15","num_nodes":"15","size_leaf_vector":"1"}},{"base_weights":[2.7945905E-3,1.0143327E0,-1.2168081E0,4.963357E-1,1.2299969E0,-1.3829509E0,-7.053399E-2,-1.5253027E-3,7.1030054E-3,9.883259E-3,1.3897356E-2,-1.4139416E-2,8.44792E-3,2.62837E-3,-1.34931E-2],"categories":[],"categories_nodes":[],"categories_segments":[],"categories_sizes":[],"default_left":[0,0,0,0,0,0,0,0,0,0,0,0,0,0,0],"id":30,"left_children":[1,3,5,7,9,11,13,-1,-1,-1,-1,-1,-1,-1,-1],"loss_changes":[3.4814252E2,1.6622025E1,2.4268494E1,6.636504E0,2.80484E0,8.90567E0,7.7086034E0,0E0,0E0,0E0,0E0,0E0,0E0,0E0,0E0],"parents":[2147483647,0,0,1,1,2,2,3,3,4,4,5,5,6,6],"right_children":[2,4,6,8,10,12,14,-1,-1,-1,-1,-1,-1,-1,-1],"split_conditions":[1E0,3.611111E-1,6.388889E-1,1E0,5.648148E-1,8.3116883E-1,4.032258E-1,-1.5253027E-3,7.1030054E-3,9.883259E-3,1.3897356E-2,-1.4139416E-2,8.44792E-3,2.62837E-3,-1.34931E-2],"split_indices":[13,5,5,14,5,1,4,0,0,0,0,0,0,0,0],"split_type":[0,0,0,0,0,0,0,0,0,0,0,0,0,0,0],"sum_hessian":[2.801992E2,1.5325656E2,1.2694263E2,4.6021175E1,1.0723538E2,1.10692245E2,1.6250381E1,1.1483536E1,3.453764E1,4.5533802E1,6.170158E1,1.0953379E2,1.1584547E0,1.3520192E1,2.730189E0],"tree_param":{"num_deleted":"0","num_feature":"15","num_nodes":"15","size_leaf_vector":"1"}},{"base_weights":[2.8253035E-3,1.0076048E0,-1.2064767E0,4.920498E-1,1.2228887E0,-1.3712728E0,-7.049932E-2,6.0966522E-3,-6.3802223E-3,8.473185E-3,1.3198819E-2,-1.4020663E-2,8.413016E-3,2.605088E-3,-1.3406073E-2],"categories":[],"categories_nodes":[],"categories_segments":[],"categories_sizes":[],"default_left":[0,0,0,0,0,0,0,0,0,0,0,0,0,0,0],"id":31,"left_children":[1,3,5,7,9,11,13,-1,-1,-1,-1,-1,-1,-1,-1],"loss_changes":[3.420805E2,1.6464844E1,2.382106E1,6.6317015E0,2.8084564E0,8.777893E0,7.597437E0,0E0,0E0,0E0,0E0,0E0,0E0,0E0,0E0],"parents":[2147483647,0,0,1,1,2,2,3,3,4,4,5,5,6,6],"right_children":[2,4,6,8,10,12,14,-1,-1,-1,-1,-1,-1,-1,-1],"split_conditions":[1E0,3.611111E-1,6.388889E-1,1E0,1E0,8.3116883E-1,4.032258E-1,6.0966522E-3,-6.3802223E-3,8.473185E-3,1.3198819E-2,-1.4020663E-2,8.413016E-3,2.605088E-3,-1.3406073E-2],"split_indices":[13,5,5,6,14,1,4,0,0,0,0,0,0,0,0],"split_type":[0,0,0,0,0,0,0,0,0,0,0,0,0,0,0],"sum_hessian":[2.7952826E2,1.5276573E2,1.26762535E2,4.5968174E1,1.0679756E2,1.10521996E2,1.6240534E1,4.2052006E1,3.9161713E0,2.3918377E1,8.287918E1,1.0936621E2,1.1557902E0,1.3513593E1,2.7269413E0],"tree_param":{"num_deleted":"0","num_feature":"15","num_nodes":"15","size_leaf_vector":"1"}},{"base_weights":[2.8277347E-3,1.0009218E0,-1.1963227E0,4.8771423E-1,1.215854E0,-1.359807E0,-7.0462875E-2,1.3019216E-3,8.858631E-3,8.762431E-3,1.3256458E-2,-1.39040835E-2,8.378399E-3,2.5820076E-3,-1.3320436E-2],"categories":[],"categories_nodes":[],"categories_segments":[],"categories_sizes":[],"default_left":[0,0,0,0,0,0,0,0,0,0,0,0,0,0,0],"id":32,"left_children":[1,3,5,7,9,11,13,-1,-1,-1,-1,-1,-1,-1,-1],"loss_changes":[3.3613055E2,1.6313309E1,2.338536E1,6.5624027E0,2.8413696E0,8.652878E0,7.4883084E0,0E0,0E0,0E0,0E0,0E0,0E0,0E0,0E0],"parents":[2147483647,0,0,1,1,2,2,3,3,4,4,5,5,6,6],"right_children":[2,4,6,8,10,12,14,-1,-1,-1,-1,-1,-1,-1,-1],"split_conditions":[1E0,3.611111E-1,6.388889E-1,2.7419356E-1,2.4193548E-1,8.3116883E-1,4.032258E-1,1.3019216E-3,8.858631E-3,8.762431E-3,1.3256458E-2,-1.39040835E-2,8.378399E-3,2.5820076E-3,-1.3320436E-2],"split_indices":[13,5,5,4,4,1,4,0,0,0,0,0,0,0,0],"split_type":[0,0,0,0,0,0,0,0,0,0,0,0,0,0,0],"sum_hessian":[2.78842E2,1.5226878E2,1.26573235E2,4.5911655E1,1.06357124E2,1.1034275E2,1.6230484E1,2.488916E1,2.1022495E1,2.8177788E1,7.817934E1,1.09189644E2,1.1531049E0,1.35070095E1,2.7234743E0],"tree_param":{"num_deleted":"0","num_feature":"15","num_nodes":"15","size_leaf_vector":"1"}},{"base_weights":[2.869513E-3,9.943738E-1,-1.1863401E0,4.836198E-1,1.2089223E0,-1.3485463E0,-7.042426E-2,-1.599128E-3,6.965525E-3,9.659982E-3,1.3700989E-2,-1.3789603E-2,8.3440645E-3,2.5591308E-3,-1.3236153E-2],"categories":[],"categories_nodes":[],"categories_segments":[],"categories_sizes":[],"default_left":[0,0,0,0,0,0,0,0,0,0,0,0,0,0,0],"id":33,"left_children":[1,3,5,7,9,11,13,-1,-1,-1,-1,-1,-1,-1,-1],"loss_changes":[3.303221E2,1.6156174E1,2.2960999E1,6.5321884E0,2.8625336E0,8.530426E0,7.3811717E0,0E0,0E0,0E0,0E0,0E0,0E0,0E0,0E0],"parents":[2147483647,0,0,1,1,2,2,3,3,4,4,5,5,6,6],"right_children":[2,4,6,8,10,12,14,-1,-1,-1,-1,-1,-1,-1,-1],"split_conditions":[1E0,3.611111E-1,6.388889E-1,1E0,5.648148E-1,8.3116883E-1,4.032258E-1,-1.599128E-3,6.965525E-3,9.659982E-3,1.3700989E-2,-1.3789603E-2,8.3440645E-3,2.5591308E-3,-1.3236153E-2],"split_indices":[13,5,5,14,5,1,4,0,0,0,0,0,0,0,0],"split_type":[0,0,0,0,0,0,0,0,0,0,0,0,0,0,0],"sum_hessian":[2.781457E2,1.5177065E2,1.2637504E2,4.585719E1,1.0591345E2,1.101548E2,1.622024E1,1.146283E1,3.439436E1,4.5033207E1,6.088025E1,1.090044E2,1.1503996E0,1.3500445E1,2.719794E0],"tree_param":{"num_deleted":"0","num_feature":"15","num_nodes":"15","size_leaf_vector":"1"}},{"base_weights":[2.8992058E-3,9.878625E-1,-1.1765236E0,4.7944826E-1,1.2020854E0,-1.3374841E0,-7.038347E-2,5.965261E-3,-6.3989665E-3,8.24948E-3,1.2998904E-2,-1.3677154E-2,8.310009E-3,2.5364577E-3,-1.3153191E-2],"categories":[],"categories_nodes":[],"categories_segments":[],"categories_sizes":[],"default_left":[0,0,0,0,0,0,0,0,0,0,0,0,0,0,0],"id":34,"left_children":[1,3,5,7,9,11,13,-1,-1,-1,-1,-1,-1,-1,-1],"loss_changes":[3.2462283E2,1.6008194E1,2.2547516E1,6.515383E0,2.854828E0,8.410568E0,7.2759843E0,0E0,0E0,0E0,0E0,0E0,0E0,0E0,0E0],"parents":[2147483647,0,0,1,1,2,2,3,3,4,4,5,5,6,6],"right_children":[2,4,6,8,10,12,14,-1,-1,-1,-1,-1,-1,-1,-1],"split_conditions":[1E0,3.611111E-1,6.388889E-1,1E0,1E0,8.3116883E-1,4.032258E-1,5.965261E-3,-6.3989665E-3,8.24948E-3,1.2998904E-2,-1.3677154E-2,8.310009E-3,2.5364577E-3,-1.3153191E-2],"split_indices":[13,5,5,6,14,1,4,0,0,0,0,0,0,0,0],"split_type":[0,0,0,0,0,0,0,0,0,0,0,0,0,0,0],"sum_hessian":[2.7744012E2,1.5127188E2,1.2616824E2,4.5803852E1,1.0546803E2,1.09958435E2,1.6209806E1,4.1889496E1,3.9143543E0,2.3661942E1,8.180609E1,1.0881076E2,1.1476748E0,1.34939E1,2.7159064E0],"tree_param":{"num_deleted":"0","num_feature":"15","num_nodes":"15","size_leaf_vector":"1"}},{"base_weights":[2.9006174E-3,9.8139054E-1,-1.1668688E0,4.752252E-1,1.1953148E0,-1.3266149E0,-7.034122E-2,1.2040321E-3,8.717517E-3,9.518218E-3,1.3573165E-2,-1.3566678E-2,8.276227E-3,2.5139782E-3,-1.3071516E-2],"categories":[],"categories_nodes":[],"categories_segments":[],"categories_sizes":[],"default_left":[0,0,0,0,0,0,0,0,0,0,0,0,0,0,0],"id":35,"left_children":[1,3,5,7,9,11,13,-1,-1,-1,-1,-1,-1,-1,-1],"loss_changes":[3.1902634E2,1.5865509E1,2.2144562E1,6.4721756E0,2.8901825E0,8.293152E0,7.172691E0,0E0,0E0,0E0,0E0,0E0,0E0,0E0,0E0],"parents":[2147483647,0,0,1,1,2,2,3,3,4,4,5,5,6,6],"right_children":[2,4,6,8,10,12,14,-1,-1,-1,-1,-1,-1,-1,-1],"split_conditions":[1E0,3.611111E-1,6.388889E-1,2.7419356E-1,5.648148E-1,8.3116883E-1,4.032258E-1,1.2040321E-3,8.717517E-3,9.518218E-3,1.3573165E-2,-1.3566678E-2,8.276227E-3,2.5139782E-3,-1.3071516E-2],"split_indices":[13,5,5,4,5,1,4,0,0,0,0,0,0,0,0],"split_type":[0,0,0,0,0,0,0,0,0,0,0,0,0,0,0],"sum_hessian":[2.7672067E2,1.5076753E2,1.2595314E2,4.574705E1,1.0502048E2,1.0975395E2,1.6199188E1,2.4831154E1,2.09159E1,4.4704216E1,6.0316257E1,1.08609024E2,1.1449312E0,1.3487372E1,2.7118156E0],"tree_param":{"num_deleted":"0","num_feature":"15","num_nodes":"15","size_leaf_vector":"1"}},{"base_weights":[2.9467624E-3,9.750546E-1,-1.15737E0,4.7124147E-1,1.1886475E0,-1.3159317E0,-7.029697E-2,-1.6701075E-3,6.8316213E-3,8.465018E-3,1.2999029E-2,-1.3458108E-2,8.242717E-3,2.4916981E-3,-1.2991099E-2],"categories":[],"categories_nodes":[],"categories_segments":[],"categories_sizes":[],"default_left":[0,0,0,0,0,0,0,0,0,0,0,0,0,0,0],"id":36,"left_children":[1,3,5,7,9,11,13,-1,-1,-1,-1,-1,-1,-1,-1],"loss_changes":[3.1356372E2,1.57174225E1,2.1751709E1,6.4296465E0,2.9182281E0,8.178131E0,7.071259E0,0E0,0E0,0E0,0E0,0E0,0E0,0E0,0E0],"parents":[2147483647,0,0,1,1,2,2,3,3,4,4,5,5,6,6],"right_children":[2,4,6,8,10,12,14,-1,-1,-1,-1,-1,-1,-1,-1],"split_conditions":[1E0,3.611111E-1,6.388889E-1,1E0,2.4193548E-1,8.3116883E-1,4.032258E-1,-1.6701075E-3,6.8316213E-3,8.465018E-3,1.2999029E-2,-1.3458108E-2,8.242717E-3,2.4916981E-3,-1.2991099E-2],"split_indices":[13,5,5,14,4,1,4,0,0,0,0,0,0,0,0],"split_type":[0,0,0,0,0,0,0,0,0,0,0,0,0,0,0],"sum_hessian":[2.759931E2,1.5026308E2,1.2573002E2,4.5692337E1,1.0457073E2,1.09541626E2,1.6188393E1,1.1442449E1,3.424989E1,2.7771908E1,7.679883E1,1.0839946E2,1.1421695E0,1.34808655E1,2.707528E0],"tree_param":{"num_deleted":"0","num_feature":"15","num_nodes":"15","size_leaf_vector":"1"}},{"base_weights":[2.969918E-3,9.687389E-1,-1.1480232E0,4.6717992E-1,1.1820538E0,-1.3054296E0,-7.025068E-2,5.8372747E-3,-6.4156037E-3,9.381416E-3,1.3448137E-2,-1.3351386E-2,8.209473E-3,2.4696158E-3,-1.2911907E-2],"categories":[],"categories_nodes":[],"categories_segments":[],"categories_sizes":[],"default_left":[0,0,0,0,0,0,0,0,0,0,0,0,0,0,0],"id":37,"left_children":[1,3,5,7,9,11,13,-1,-1,-1,-1,-1,-1,-1,-1],"loss_changes":[3.0819696E2,1.5577316E1,2.1368652E1,6.4012012E0,2.9114685E0,8.065414E0,6.971643E0,0E0,0E0,0E0,0E0,0E0,0E0,0E0,0E0],"parents":[2147483647,0,0,1,1,2,2,3,3,4,4,5,5,6,6],"right_children":[2,4,6,8,10,12,14,-1,-1,-1,-1,-1,-1,-1,-1],"split_conditions":[1E0,3.611111E-1,6.388889E-1,1E0,5.648148E-1,8.3116883E-1,4.032258E-1,5.8372747E-3,-6.4156037E-3,9.381416E-3,1.3448137E-2,-1.3351386E-2,8.209473E-3,2.4696158E-3,-1.2911907E-2],"split_indices":[13,5,5,6,5,1,4,0,0,0,0,0,0,0,0],"split_type":[0,0,0,0,0,0,0,0,0,0,0,0,0,0,0],"sum_hessian":[2.7525644E2,1.4975728E2,1.2549916E2,4.563876E1,1.04118515E2,1.0932173E2,1.6177427E1,4.172615E1,3.9126098E0,4.4377823E1,5.9740692E1,1.0818234E2,1.13939E0,1.3474379E1,2.7030482E0],"tree_param":{"num_deleted":"0","num_feature":"15","num_nodes":"15","size_leaf_vector":"1"}},{"base_weights":[2.9776176E-3,9.6247745E-1,-1.1388236E0,4.6306548E-1,1.1755478E0,-1.2951024E0,-7.020283E-2,1.1091665E-3,8.580074E-3,6.3428422E-3,1.2412912E-2,-1.3246457E-2,8.1764925E-3,2.4477248E-3,-1.2833911E-2],"categories":[],"categories_nodes":[],"categories_segments":[],"categories_sizes":[],"default_left":[0,0,0,0,0,0,0,0,0,0,0,0,0,0,0],"id":38,"left_children":[1,3,5,7,9,11,13,-1,-1,-1,-1,-1,-1,-1,-1],"loss_changes":[3.0293073E2,1.544339E1,2.0994995E1,6.3833485E0,2.9371185E0,7.954956E0,6.8737974E0,0E0,0E0,0E0,0E0,0E0,0E0,0E0,0E0],"parents":[2147483647,0,0,1,1,2,2,3,3,4,4,5,5,6,6],"right_children":[2,4,6,8,10,12,14,-1,-1,-1,-1,-1,-1,-1,-1],"split_conditions":[1E0,3.611111E-1,6.388889E-1,2.7419356E-1,1.1290322E-1,8.3116883E-1,4.032258E-1,1.1091665E-3,8.580074E-3,6.3428422E-3,1.2412912E-2,-1.3246457E-2,8.1764925E-3,2.4477248E-3,-1.2833911E-2],"split_indices":[13,5,5,4,4,1,4,0,0,0,0,0,0,0,0],"split_type":[0,0,0,0,0,0,0,0,0,0,0,0,0,0,0],"sum_hessian":[2.7450766E2,1.4924683E2,1.2526083E2,4.5581783E1,1.0366504E2,1.09094536E2,1.6166294E1,2.477345E1,2.0808334E1,1.23809595E1,9.128408E1,1.0795795E2,1.1365935E0,1.3467913E1,2.6983812E0],"tree_param":{"num_deleted":"0","num_feature":"15","num_nodes":"15","size_leaf_vector":"1"}},{"base_weights":[3.0084301E-3,9.563165E-1,-1.1297668E0,4.5918834E-1,1.1690967E0,-1.2849449E0,-7.015337E-2,-1.738319E-3,6.7011425E-3,7.872087E-3,1.268788E-2,-1.3143264E-2,8.143773E-3,2.4260255E-3,-1.2757085E-2],"categories":[],"categories_nodes":[],"categories_segments":[],"categories_sizes":[],"default_left":[0,0,0,0,0,0,0,0,0,0,0,0,0,0,0],"id":39,"left_children":[1,3,5,7,9,11,13,-1,-1,-1,-1,-1,-1,-1,-1],"loss_changes":[2.9777933E2,1.5302048E1,2.0630386E1,6.3287764E0,2.9685059E0,7.8466797E0,6.7776885E0,0E0,0E0,0E0,0E0,0E0,0E0,0E0,0E0],"parents":[2147483647,0,0,1,1,2,2,3,3,4,4,5,5,6,6],"right_children":[2,4,6,8,10,12,14,-1,-1,-1,-1,-1,-1,-1,-1],"split_conditions":[1E0,3.611111E-1,6.388889E-1,1E0,1E0,8.3116883E-1,4.032258E-1,-1.738319E-3,6.7011425E-3,7.872087E-3,1.268788E-2,-1.3143264E-2,8.143773E-3,2.4260255E-3,-1.2757085E-2],"split_indices":[13,5,5,14,14,1,4,0,0,0,0,0,0,0,0],"split_type":[0,0,0,0,0,0,0,0,0,0,0,0,0,0,0],"sum_hessian":[2.7375076E2,1.4873546E2,1.25015305E2,4.552691E1,1.0320855E2,1.08860306E2,1.6155E1,1.1422412E1,3.41045E1,2.3206745E1,8.000181E1,1.07726524E2,1.1337805E0,1.3461468E1,2.693532E0],"tree_param":{"num_deleted":"0","num_feature":"15","num_nodes":"15","size_leaf_vector":"1"}},{"base_weights":[3.0287115E-3,9.501802E-1,-1.1208491E0,4.5523295E-1,1.1627212E0,-1.2749524E0,-7.010227E-2,1.0582786E-3,8.482068E-3,9.171209E-3,1.327267E-2,-1.3041757E-2,8.111308E-3,2.4045156E-3,-1.2681396E-2],"categories":[],"categories_nodes":[],"categories_segments":[],"categories_sizes":[],"default_left":[0,0,0,0,0,0,0,0,0,0,0,0,0,0,0],"id":40,"left_children":[1,3,5,7,9,11,13,-1,-1,-1,-1,-1,-1,-1,-1],"loss_changes":[2.9272064E2,1.5168701E1,2.0274567E1,6.2913322E0,2.9756165E0,7.740509E0,6.6832714E0,0E0,0E0,0E0,0E0,0E0,0E0,0E0,0E0],"parents":[2147483647,0,0,1,1,2,2,3,3,4,4,5,5,6,6],"right_children":[2,4,6,8,10,12,14,-1,-1,-1,-1,-1,-1,-1,-1],"split_conditions":[1E0,3.611111E-1,6.388889E-1,2.7419356E-1,5.648148E-1,8.3116883E-1,4.032258E-1,1.0582786E-3,8.482068E-3,9.171209E-3,1.327267E-2,-1.3041757E-2,8.111308E-3,2.4045156E-3,-1.2681396E-2],"split_indices":[13,5,5,4,5,1,4,0,0,0,0,0,0,0,0],"split_type":[0,0,0,0,0,0,0,0,0,0,0,0,0,0,0],"sum_hessian":[2.729882E2,1.4822537E2,1.24762825E2,4.5473183E1,1.0275218E2,1.0861927E2,1.614355E1,2.4742853E1,2.073033E1,4.3860275E1,5.8891907E1,1.0748832E2,1.1309515E0,1.3455045E1,2.6885054E0],"tree_param":{"num_deleted":"0","num_feature":"15","num_nodes":"15","size_leaf_vector":"1"}},{"base_weights":[3.07325E-3,9.4415796E-1,-1.112066E0,4.5142484E-1,1.1564411E0,-1.2651194E0,-7.004969E-2,5.6752404E-3,-6.4598904E-3,8.113182E-3,1.2695293E-2,-1.2941882E-2,8.079097E-3,2.3831928E-3,-1.2606821E-2],"categories":[],"categories_nodes":[],"categories_segments":[],"categories_sizes":[],"default_left":[0,0,0,0,0,0,0,0,0,0,0,0,0,0,0],"id":41,"left_children":[1,3,5,7,9,11,13,-1,-1,-1,-1,-1,-1,-1,-1],"loss_changes":[2.8777396E2,1.5033112E1,1.9927216E1,6.2807045E0,3.0015259E0,7.6363983E0,6.590511E0,0E0,0E0,0E0,0E0,0E0,0E0,0E0,0E0],"parents":[2147483647,0,0,1,1,2,2,3,3,4,4,5,5,6,6],"right_children":[2,4,6,8,10,12,14,-1,-1,-1,-1,-1,-1,-1,-1],"split_conditions":[1E0,3.611111E-1,6.388889E-1,1E0,2.4193548E-1,8.3116883E-1,4.032258E-1,5.6752404E-3,-6.4598904E-3,8.113182E-3,1.2695293E-2,-1.2941882E-2,8.079097E-3,2.3831928E-3,-1.2606821E-2],"split_indices":[13,5,5,6,4,1,4,0,0,0,0,0,0,0,0],"split_type":[0,0,0,0,0,0,0,0,0,0,0,0,0,0,0],"sum_hessian":[2.7221606E2,1.4771242E2,1.24503654E2,4.5418182E1,1.02294235E2,1.08371704E2,1.6131952E1,4.150959E1,3.9085896E0,2.7264046E1,7.503019E1,1.0724359E2,1.1281073E0,1.3448645E1,2.6833067E0],"tree_param":{"num_deleted":"0","num_feature":"15","num_nodes":"15","size_leaf_vector":"1"}},{"base_weights":[3.0741082E-3,9.381306E-1,-1.1034138E0,4.4744715E-1,1.1502241E0,-1.2554415E0,-6.999526E-2,-1.8038611E-3,6.573936E-3,7.6630358E-3,1.2508896E-2,-1.2843592E-2,8.047136E-3,2.3620601E-3,-1.2533332E-2],"categories":[],"categories_nodes":[],"categories_segments":[],"categories_sizes":[],"default_left":[0,0,0,0,0,0,0,0,0,0,0,0,0,0,0],"id":42,"left_children":[1,3,5,7,9,11,13,-1,-1,-1,-1,-1,-1,-1,-1],"loss_changes":[2.8290286E2,1.4908173E1,1.9588058E1,6.229513E0,3.015747E0,7.5342255E0,6.4993744E0,0E0,0E0,0E0,0E0,0E0,0E0,0E0,0E0],"parents":[2147483647,0,0,1,1,2,2,3,3,4,4,5,5,6,6],"right_children":[2,4,6,8,10,12,14,-1,-1,-1,-1,-1,-1,-1,-1],"split_conditions":[1E0,3.611111E-1,6.388889E-1,1E0,1E0,8.3116883E-1,4.032258E-1,-1.8038611E-3,6.573936E-3,7.6630358E-3,1.2508896E-2,-1.2843592E-2,8.047136E-3,2.3620601E-3,-1.2533332E-2],"split_indices":[13,5,5,14,14,1,4,0,0,0,0,0,0,0,0],"split_type":[0,0,0,0,0,0,0,0,0,0,0,0,0,0,0],"sum_hessian":[2.714337E2,1.4719565E2,1.2423803E2,4.536116E1,1.0183449E2,1.0811782E2,1.6120207E1,1.140273E1,3.395843E1,2.294371E1,7.889078E1,1.0699258E2,1.1252483E0,1.3442267E1,2.67794E0],"tree_param":{"num_deleted":"0","num_feature":"15","num_nodes":"15","size_leaf_vector":"1"}},{"base_weights":[3.0934354E-3,9.3216956E-1,-1.0948889E0,4.435945E-1,1.144063E0,-1.245914E0,-6.993971E-2,9.681608E-4,8.350449E-3,8.967774E-3,1.3104321E-2,-1.2746841E-2,8.015419E-3,2.3411086E-3,-1.2460905E-2],"categories":[],"categories_nodes":[],"categories_segments":[],"categories_sizes":[],"default_left":[0,0,0,0,0,0,0,0,0,0,0,0,0,0,0],"id":43,"left_children":[1,3,5,7,9,11,13,-1,-1,-1,-1,-1,-1,-1,-1],"loss_changes":[2.781312E2,1.4781387E1,1.9256744E1,6.20522E0,3.0365753E0,7.4340363E0,6.4098196E0,0E0,0E0,0E0,0E0,0E0,0E0,0E0,0E0],"parents":[2147483647,0,0,1,1,2,2,3,3,4,4,5,5,6,6],"right_children":[2,4,6,8,10,12,14,-1,-1,-1,-1,-1,-1,-1,-1],"split_conditions":[1E0,3.611111E-1,6.388889E-1,2.7419356E-1,5.648148E-1,8.3116883E-1,4.032258E-1,9.681608E-4,8.350449E-3,8.967774E-3,1.3104321E-2,-1.2746841E-2,8.015419E-3,2.3411086E-3,-1.2460905E-2],"split_indices":[13,5,5,4,5,1,4,0,0,0,0,0,0,0,0],"split_type":[0,0,0,0,0,0,0,0,0,0,0,0,0,0,0],"sum_hessian":[2.7064798E2,1.4668176E2,1.2396621E2,4.530737E1,1.0137439E2,1.0785789E2,1.6108324E1,2.4685915E1,2.0621454E1,4.334225E1,5.803214E1,1.0673551E2,1.122375E0,1.3435913E1,2.67241E0],"tree_param":{"num_deleted":"0","num_feature":"15","num_nodes":"15","size_leaf_vector":"1"}},{"base_weights":[3.1371566E-3,9.2631865E-1,-1.0864874E0,4.3988693E-1,1.1379921E0,-1.2365323E0,-6.988243E-2,5.5546807E-3,-6.471737E-3,7.909155E-3,1.2522674E-2,-1.2651579E-2,7.983946E-3,2.320343E-3,-1.2389513E-2],"categories":[],"categories_nodes":[],"categories_segments":[],"categories_sizes":[],"default_left":[0,0,0,0,0,0,0,0,0,0,0,0,0,0,0],"id":44,"left_children":[1,3,5,7,9,11,13,-1,-1,-1,-1,-1,-1,-1,-1],"loss_changes":[2.7346414E2,1.465226E1,1.893312E1,6.170803E0,3.0516663E0,7.335678E0,6.321816E0,0E0,0E0,0E0,0E0,0E0,0E0,0E0,0E0],"parents":[2147483647,0,0,1,1,2,2,3,3,4,4,5,5,6,6],"right_children":[2,4,6,8,10,12,14,-1,-1,-1,-1,-1,-1,-1,-1],"split_conditions":[1E0,3.611111E-1,6.388889E-1,1E0,2.4193548E-1,8.3116883E-1,4.032258E-1,5.5546807E-3,-6.471737E-3,7.909155E-3,1.2522674E-2,-1.2651579E-2,7.983946E-3,2.320343E-3,-1.2389513E-2],"split_indices":[13,5,5,6,4,1,4,0,0,0,0,0,0,0,0],"split_type":[0,0,0,0,0,0,0,0,0,0,0,0,0,0,0],"sum_hessian":[2.6985388E2,1.4616547E2,1.2368843E2,4.5252357E1,1.0091311E2,1.07592125E2,1.6096306E1,4.1345352E1,3.9070053E0,2.6957901E1,7.395521E1,1.0647264E2,1.1194879E0,1.3429584E1,2.6667218E0],"tree_param":{"num_deleted":"0","num_feature":"15","num_nodes":"15","size_leaf_vector":"1"}},{"base_weights":[3.1371384E-3,9.204585E-1,-1.0782061E0,4.3600956E-1,1.131979E0,-1.2272925E0,-6.982378E-2,-1.8667798E-3,6.4498936E-3,7.4586975E-3,1.233678E-2,-1.2557768E-2,7.952713E-3,-9.012089E-3,3.524791E-3],"categories":[],"categories_nodes":[],"categories_segments":[],"categories_sizes":[],"default_left":[0,0,0,0,0,0,0,0,0,0,0,0,0,0,0],"id":45,"left_children":[1,3,5,7,9,11,13,-1,-1,-1,-1,-1,-1,-1,-1],"loss_changes":[2.6886624E2,1.4533363E1,1.8616852E1,6.1317663E0,3.0634766E0,7.239197E0,6.3158426E0,0E0,0E0,0E0,0E0,0E0,0E0,0E0,0E0],"parents":[2147483647,0,0,1,1,2,2,3,3,4,4,5,5,6,6],"right_children":[2,4,6,8,10,12,14,-1,-1,-1,-1,-1,-1,-1,-1],"split_conditions":[1E0,3.611111E-1,6.388889E-1,1E0,1E0,8.3116883E-1,1E0,-1.8667798E-3,6.4498936E-3,7.4586975E-3,1.233678E-2,-1.2557768E-2,7.952713E-3,-9.012089E-3,3.524791E-3],"split_indices":[13,5,5,14,14,1,14,0,0,0,0,0,0,0,0],"split_type":[0,0,0,0,0,0,0,0,0,0,0,0,0,0,0],"sum_hessian":[2.6905063E2,1.4564572E2,1.234049E2,4.5195354E1,1.0045037E2,1.0732074E2,1.6084158E1,1.1383421E1,3.381193E1,2.2679573E1,7.77708E1,1.06204155E2,1.1165876E0,5.035926E0,1.1048231E1],"tree_param":{"num_deleted":"0","num_feature":"15","num_nodes":"15","size_leaf_vector":"1"}},{"base_weights":[3.1724349E-3,9.146613E-1,-1.0698676E0,4.3225586E-1,1.1260167E0,-1.2181904E0,-6.942945E-2,4.613135E-4,7.796799E-3,8.769412E-3,1.294309E-2,-1.2465366E-2,7.921716E-3,2.3082606E-3,-1.233267E-2],"categories":[],"categories_nodes":[],"categories_segments":[],"categories_sizes":[],"default_left":[0,0,0,0,0,0,0,0,0,0,0,0,0,0,0],"id":46,"left_children":[1,3,5,7,9,11,13,-1,-1,-1,-1,-1,-1,-1,-1],"loss_changes":[2.6433304E2,1.4412468E1,1.8335068E1,6.1538763E0,3.098114E0,7.144455E0,6.2559705E0,0E0,0E0,0E0,0E0,0E0,0E0,0E0,0E0],"parents":[2147483647,0,0,1,1,2,2,3,3,4,4,5,5,6,6],"right_children":[2,4,6,8,10,12,14,-1,-1,-1,-1,-1,-1,-1,-1],"split_conditions":[1E0,3.611111E-1,6.388889E-1,3.4848484E-1,5.648148E-1,8.3116883E-1,4.032258E-1,4.613135E-4,7.796799E-3,8.769412E-3,1.294309E-2,-1.2465366E-2,7.921716E-3,2.3082606E-3,-1.233267E-2],"split_indices":[13,5,5,1,5,1,4,0,0,0,0,0,0,0,0],"split_type":[0,0,0,0,0,0,0,0,0,0,0,0,0,0,0],"sum_hessian":[2.6826096E2,1.4512923E2,1.23131744E2,4.514158E1,9.998765E1,1.0704397E2,1.6087776E1,2.1916512E1,2.3225069E1,4.2821655E1,5.716599E1,1.059303E2,1.1136746E0,1.3425765E1,2.662011E0],"tree_param":{"num_deleted":"0","num_feature":"15","num_nodes":"15","size_leaf_vector":"1"}},{"base_weights":[3.2117497E-3,9.089344E-1,-1.061817E0,4.2858183E-1,1.1201397E0,-1.2092221E0,-6.937339E-2,8.465925E-4,8.186243E-3,7.7097993E-3,1.2356666E-2,-1.2374329E-2,7.890954E-3,-8.942093E-3,3.5048246E-3],"categories":[],"categories_nodes":[],"categories_segments":[],"categories_sizes":[],"default_left":[0,0,0,0,0,0,0,0,0,0,0,0,0,0,0],"id":47,"left_children":[1,3,5,7,9,11,13,-1,-1,-1,-1,-1,-1,-1,-1],"loss_changes":[2.5992053E2,1.4293053E1,1.8032455E1,6.1136103E0,3.1022034E0,7.051468E0,6.2268653E0,0E0,0E0,0E0,0E0,0E0,0E0,0E0,0E0],"parents":[2147483647,0,0,1,1,2,2,3,3,4,4,5,5,6,6],"right_children":[2,4,6,8,10,12,14,-1,-1,-1,-1,-1,-1,-1,-1],"split_conditions":[1E0,3.611111E-1,6.388889E-1,2.7419356E-1,2.4193548E-1,8.3116883E-1,1E0,8.465925E-4,8.186243E-3,7.7097993E-3,1.2356666E-2,-1.2374329E-2,7.890954E-3,-8.942093E-3,3.5048246E-3],"split_indices":[13,5,5,4,4,1,14,0,0,0,0,0,0,0,0],"split_type":[0,0,0,0,0,0,0,0,0,0,0,0,0,0,0],"sum_hessian":[2.674531E2,1.4461555E2,1.2283753E2,4.509147E1,9.952409E1,1.0676201E2,1.607552E1,2.4609196E1,2.0482273E1,2.6650684E1,7.2873405E1,1.0565126E2,1.1107495E0,5.041447E0,1.1034073E1],"tree_param":{"num_deleted":"0","num_feature":"15","num_nodes":"15","size_leaf_vector":"1"}},{"base_weights":[3.265312E-3,9.0328777E-1,-1.0537051E0,4.2500255E-1,1.1143157E0,-1.2003837E0,-6.89816E-2,5.401753E-3,-6.513535E-3,8.645464E-3,1.283639E-2,-1.2284622E-2,7.860419E-3,2.2962773E-3,-1.2276539E-2],"categories":[],"categories_nodes":[],"categories_segments":[],"categories_sizes":[],"default_left":[0,0,0,0,0,0,0,0,0,0,0,0,0,0,0],"id":48,"left_children":[1,3,5,7,9,11,13,-1,-1,-1,-1,-1,-1,-1,-1],"loss_changes":[2.5556647E2,1.4171188E1,1.7763062E1,6.058858E0,3.1219177E0,6.960129E0,6.1910415E0,0E0,0E0,0E0,0E0,0E0,0E0,0E0,0E0],"parents":[2147483647,0,0,1,1,2,2,3,3,4,4,5,5,6,6],"right_children":[2,4,6,8,10,12,14,-1,-1,-1,-1,-1,-1,-1,-1],"split_conditions":[1E0,3.611111E-1,6.388889E-1,1E0,5.648148E-1,8.3116883E-1,4.032258E-1,5.401753E-3,-6.513535E-3,8.645464E-3,1.283639E-2,-1.2284622E-2,7.860419E-3,2.2962773E-3,-1.2276539E-2],"split_indices":[13,5,5,6,5,1,4,0,0,0,0,0,0,0,0],"split_type":[0,0,0,0,0,0,0,0,0,0,0,0,0,0,0],"sum_hessian":[2.6665E2,1.44096E2,1.22554E2,4.5036587E1,9.90594E1,1.0647509E2,1.607891E1,4.113336E1,3.9032266E0,4.248926E1,5.6570145E1,1.0536728E2,1.1078126E0,1.3421724E1,2.6571863E0],"tree_param":{"num_deleted":"0","num_feature":"15","num_nodes":"15","size_leaf_vector":"1"}},{"base_weights":[3.2689485E-3,8.9764047E-1,-1.0458729E0,4.212521E-1,1.1085609E0,-1.1916717E0,-6.892789E-2,-1.976194E-3,6.298123E-3,7.184953E-3,1.2119001E-2,-1.2196205E-2,7.830113E-3,-8.872979E-3,3.4850317E-3],"categories":[],"categories_nodes":[],"categories_segments":[],"categories_sizes":[],"default_left":[0,0,0,0,0,0,0,0,0,0,0,0,0,0,0],"id":49,"left_children":[1,3,5,7,9,11,13,-1,-1,-1,-1,-1,-1,-1,-1],"loss_changes":[2.5130632E2,1.4059883E1,1.7473267E1,6.059162E0,3.143837E0,6.8704224E0,6.139384E0,0E0,0E0,0E0,0E0,0E0,0E0,0E0,0E0],"parents":[2147483647,0,0,1,1,2,2,3,3,4,4,5,5,6,6],"right_children":[2,4,6,8,10,12,14,-1,-1,-1,-1,-1,-1,-1,-1],"split_conditions":[1E0,3.611111E-1,6.388889E-1,1E0,1E0,8.3116883E-1,1E0,-1.976194E-3,6.298123E-3,7.184953E-3,1.2119001E-2,-1.2196205E-2,7.830113E-3,-8.872979E-3,3.4850317E-3],"split_indices":[13,5,5,14,14,1,14,0,0,0,0,0,0,0,0],"split_type":[0,0,0,0,0,0,0,0,0,0,0,0,0,0,0],"sum_hessian":[2.6582455E2,1.4357462E2,1.22249954E2,4.497977E1,9.859484E1,1.06183395E2,1.6066553E1,1.13507E1,3.362907E1,2.2315449E1,7.627939E1,1.0507854E2,1.1048645E0,5.046776E0,1.1019776E1],"tree_param":{"num_deleted":"0","num_feature":"15","num_nodes":"15","size_leaf_vector":"1"}},{"base_weights":[3.302421E-3,8.9204425E-1,-1.0379758E0,4.1762397E-1,1.1028407E0,-1.1830825E0,-6.853899E-2,3.3910447E-4,7.6402957E-3,8.591128E-3,1.2790925E-2,-1.2109043E-2,7.800033E-3,2.28439E-3,-1.2221102E-2],"categories":[],"categories_nodes":[],"categories_segments":[],"categories_sizes":[],"default_left":[0,0,0,0,0,0,0,0,0,0,0,0,0,0,0],"id":50,"left_children":[1,3,5,7,9,11,13,-1,-1,-1,-1,-1,-1,-1,-1],"loss_changes":[2.4710196E2,1.3945946E1,1.721547E1,6.0786314E0,3.1595078E0,6.7823334E0,6.1270113E0,0E0,0E0,0E0,0E0,0E0,0E0,0E0,0E0],"parents":[2147483647,0,0,1,1,2,2,3,3,4,4,5,5,6,6],"right_children":[2,4,6,8,10,12,14,-1,-1,-1,-1,-1,-1,-1,-1],"split_conditions":[1E0,3.611111E-1,6.388889E-1,3.4848484E-1,4.199134E-1,8.3116883E-1,4.032258E-1,3.3910447E-4,7.6402957E-3,8.591128E-3,1.2790925E-2,-1.2109043E-2,7.800033E-3,2.28439E-3,-1.2221102E-2],"split_indices":[13,5,5,1,1,1,4,0,0,0,0,0,0,0,0],"split_type":[0,0,0,0,0,0,0,0,0,0,0,0,0,0,0],"sum_hessian":[2.650133E2,1.4305644E2,1.21956856E2,4.4926235E1,9.813021E1,1.0588713E2,1.606972E1,2.1836184E1,2.309005E1,4.3647343E1,5.448287E1,1.04785225E2,1.1019057E0,1.3417469E1,2.6522512E0],"tree_param":{"num_deleted":"0","num_feature":"15","num_nodes":"15","size_leaf_vector":"1"}},{"base_weights":[3.3404024E-3,8.865032E-1,-1.0303503E0,4.1407546E-1,1.0971785E0,-1.1746124E0,-6.848745E-2,7.2993664E-4,8.027274E-3,7.4454634E-3,1.2146053E-2,-1.2023098E-2,7.7701733E-3,-8.80473E-3,3.465407E-3],"categories":[],"categories_nodes":[],"categories_segments":[],"categories_sizes":[],"default_left":[0,0,0,0,0,0,0,0,0,0,0,0,0,0,0],"id":51,"left_children":[1,3,5,7,9,11,13,-1,-1,-1,-1,-1,-1,-1,-1],"loss_changes":[2.4300748E2,1.3832397E1,1.6937653E1,6.0228696E0,3.1813354E0,6.695755E0,6.0533643E0,0E0,0E0,0E0,0E0,0E0,0E0,0E0,0E0],"parents":[2147483647,0,0,1,1,2,2,3,3,4,4,5,5,6,6],"right_children":[2,4,6,8,10,12,14,-1,-1,-1,-1,-1,-1,-1,-1],"split_conditions":[1E0,3.611111E-1,6.388889E-1,2.7419356E-1,2.4193548E-1,8.3116883E-1,1E0,7.2993664E-4,8.027274E-3,7.4454634E-3,1.2146053E-2,-1.2023098E-2,7.7701733E-3,-8.80473E-3,3.465407E-3],"split_indices":[13,5,5,4,4,1,14,0,0,0,0,0,0,0,0],"split_type":[0,0,0,0,0,0,0,0,0,0,0,0,0,0,0],"sum_hessian":[2.6418735E2,1.425436E2,1.2164375E2,4.4876328E1,9.766727E1,1.0558649E2,1.6057262E1,2.4533497E1,2.0342833E1,2.623232E1,7.1434944E1,1.0448756E2,1.0989366E0,5.051917E0,1.1005345E1],"tree_param":{"num_deleted":"0","num_feature":"15","num_nodes":"15","size_leaf_vector":"1"}},{"base_weights":[3.392376E-3,8.810499E-1,-1.0226564E0,4.10619E-1,1.0915853E0,-1.1662583E0,-6.810142E-2,-2.0399527E-3,6.1845267E-3,8.390083E-3,1.2638126E-2,-1.1938339E-2,7.740532E-3,2.2725982E-3,-1.2166346E-2],"categories":[],"categories_nodes":[],"categories_segments":[],"categories_sizes":[],"default_left":[0,0,0,0,0,0,0,0,0,0,0,0,0,0,0],"id":52,"left_children":[1,3,5,7,9,11,13,-1,-1,-1,-1,-1,-1,-1,-1],"loss_changes":[2.3896684E2,1.3717125E1,1.6690704E1,5.9793124E0,3.2114792E0,6.6107025E0,6.0638647E0,0E0,0E0,0E0,0E0,0E0,0E0,0E0,0E0],"parents":[2147483647,0,0,1,1,2,2,3,3,4,4,5,5,6,6],"right_children":[2,4,6,8,10,12,14,-1,-1,-1,-1,-1,-1,-1,-1],"split_conditions":[1E0,3.611111E-1,6.388889E-1,1E0,5.648148E-1,8.3116883E-1,4.032258E-1,-2.0399527E-3,6.1845267E-3,8.390083E-3,1.2638126E-2,-1.1938339E-2,7.740532E-3,2.2725982E-3,-1.2166346E-2],"split_indices":[13,5,5,14,5,1,4,0,0,0,0,0,0,0,0],"split_type":[0,0,0,0,0,0,0,0,0,0,0,0,0,0,0],"sum_hessian":[2.6336502E2,1.4202315E2,1.21341866E2,4.4821697E1,9.7201454E1,1.05281654E2,1.606021E1,1.1331167E1,3.349053E1,4.1788586E1,5.541287E1,1.041857E2,1.0959576E0,1.3413001E1,2.647209E0],"tree_param":{"num_deleted":"0","num_feature":"15","num_nodes":"15","size_leaf_vector":"1"}},{"base_weights":[3.414857E-3,8.756101E-1,-1.0152272E0,4.0708134E-1,1.086056E0,-1.1580174E0,-6.805223E-2,2.5988254E-4,7.5211674E-3,6.9157835E-3,1.1911712E-2,-1.1854734E-2,7.7111064E-3,2.2524302E-3,-1.2099074E-2],"categories":[],"categories_nodes":[],"categories_segments":[],"categories_sizes":[],"default_left":[0,0,0,0,0,0,0,0,0,0,0,0,0,0,0],"id":53,"left_children":[1,3,5,7,9,11,13,-1,-1,-1,-1,-1,-1,-1,-1],"loss_changes":[2.35019E2,1.3608818E1,1.6424149E1,5.998563E0,3.2289124E0,6.527115E0,5.9817953E0,0E0,0E0,0E0,0E0,0E0,0E0,0E0,0E0],"parents":[2147483647,0,0,1,1,2,2,3,3,4,4,5,5,6,6],"right_children":[2,4,6,8,10,12,14,-1,-1,-1,-1,-1,-1,-1,-1],"split_conditions":[1E0,3.611111E-1,6.388889E-1,3.4848484E-1,1E0,8.3116883E-1,4.032258E-1,2.5988254E-4,7.5211674E-3,6.9157835E-3,1.1911712E-2,-1.1854734E-2,7.7111064E-3,2.2524302E-3,-1.2099074E-2],"split_indices":[13,5,5,1,14,1,4,0,0,0,0,0,0,0,0],"split_type":[0,0,0,0,0,0,0,0,0,0,0,0,0,0,0],"sum_hessian":[2.6252502E2,1.4150453E2,1.21020485E2,4.4768353E1,9.673618E1,1.04972824E2,1.6047655E1,2.1783598E1,2.2984755E1,2.1948137E1,7.478804E1,1.0387986E2,1.0929692E0,1.3406755E1,2.6409001E0],"tree_param":{"num_deleted":"0","num_feature":"15","num_nodes":"15","size_leaf_vector":"1"}},{"base_weights":[3.4431429E-3,8.7020326E-1,-1.0078921E0,4.0362316E-1,1.0805552E0,-1.1498864E0,-6.8001725E-2,5.1865447E-3,-6.6182767E-3,8.269568E-3,1.254059E-2,-1.1772252E-2,7.681894E-3,-8.754429E-3,3.4569078E-3],"categories":[],"categories_nodes":[],"categories_segments":[],"categories_sizes":[],"default_left":[0,0,0,0,0,0,0,0,0,0,0,0,0,0,0],"id":54,"left_children":[1,3,5,7,9,11,13,-1,-1,-1,-1,-1,-1,-1,-1],"loss_changes":[2.3114279E2,1.3499603E1,1.6163132E1,5.946541E0,3.2429123E0,6.4449463E0,5.9928703E0,0E0,0E0,0E0,0E0,0E0,0E0,0E0,0E0],"parents":[2147483647,0,0,1,1,2,2,3,3,4,4,5,5,6,6],"right_children":[2,4,6,8,10,12,14,-1,-1,-1,-1,-1,-1,-1,-1],"split_conditions":[1E0,3.611111E-1,6.388889E-1,1E0,5.648148E-1,8.3116883E-1,1E0,5.1865447E-3,-6.6182767E-3,8.269568E-3,1.254059E-2,-1.1772252E-2,7.681894E-3,-8.754429E-3,3.4569078E-3],"split_indices":[13,5,5,6,5,1,14,0,0,0,0,0,0,0,0],"split_type":[0,0,0,0,0,0,0,0,0,0,0,0,0,0,0],"sum_hessian":[2.6168497E2,1.4098984E2,1.2069513E2,4.471861E1,9.6271225E1,1.0466014E2,1.603499E1,4.082423E1,3.894377E0,4.1451176E1,5.4820053E1,1.0357017E2,1.0899719E0,5.05416E0,1.0980831E1],"tree_param":{"num_deleted":"0","num_feature":"15","num_nodes":"15","size_leaf_vector":"1"}},{"base_weights":[3.4614815E-3,8.648328E-1,-1.0004827E0,4.0005153E-1,1.0751312E0,-1.1418619E0,-6.761926E-2,6.179853E-4,7.873243E-3,7.188483E-3,1.1945552E-2,-1.169086E-2,7.6528923E-3,2.2409013E-3,-1.2045845E-2],"categories":[],"categories_nodes":[],"categories_segments":[],"categories_sizes":[],"default_left":[0,0,0,0,0,0,0,0,0,0,0,0,0,0,0],"id":55,"left_children":[1,3,5,7,9,11,13,-1,-1,-1,-1,-1,-1,-1,-1],"loss_changes":[2.27305E2,1.3397408E1,1.5931503E1,5.9329376E0,3.2602692E0,6.364197E0,5.920742E0,0E0,0E0,0E0,0E0,0E0,0E0,0E0,0E0],"parents":[2147483647,0,0,1,1,2,2,3,3,4,4,5,5,6,6],"right_children":[2,4,6,8,10,12,14,-1,-1,-1,-1,-1,-1,-1,-1],"split_conditions":[1E0,3.611111E-1,6.388889E-1,2.7419356E-1,2.4193548E-1,8.3116883E-1,4.032258E-1,6.179853E-4,7.873243E-3,7.188483E-3,1.1945552E-2,-1.169086E-2,7.6528923E-3,2.2409013E-3,-1.2045845E-2],"split_indices":[13,5,5,4,4,1,4,0,0,0,0,0,0,0,0],"split_type":[0,0,0,0,0,0,0,0,0,0,0,0,0,0,0],"sum_hessian":[2.6085007E2,1.4046846E2,1.203816E2,4.466235E1,9.5806114E1,1.0434383E2,1.6037771E1,2.4458927E1,2.0203423E1,2.5813848E1,6.999227E1,1.0325686E2,1.086966E0,1.3402117E1,2.6356552E0],"tree_param":{"num_deleted":"0","num_feature":"15","num_nodes":"15","size_leaf_vector":"1"}},{"base_weights":[3.4943928E-3,8.595571E-1,-9.933287E-1,3.9671302E-1,1.0697472E0,-1.1339414E0,-6.7570865E-2,-2.141223E-3,6.0413224E-3,8.2176775E-3,1.2502694E-2,-1.16105275E-2,7.6240986E-3,-8.687525E-3,3.437527E-3],"categories":[],"categories_nodes":[],"categories_segments":[],"categories_sizes":[],"default_left":[0,0,0,0,0,0,0,0,0,0,0,0,0,0,0],"id":56,"left_children":[1,3,5,7,9,11,13,-1,-1,-1,-1,-1,-1,-1,-1],"loss_changes":[2.2357451E2,1.3287857E1,1.568074E1,5.9078536E0,3.2853317E0,6.284775E0,5.909144E0,0E0,0E0,0E0,0E0,0E0,0E0,0E0,0E0],"parents":[2147483647,0,0,1,1,2,2,3,3,4,4,5,5,6,6],"right_children":[2,4,6,8,10,12,14,-1,-1,-1,-1,-1,-1,-1,-1],"split_conditions":[1E0,3.611111E-1,6.388889E-1,1E0,4.199134E-1,8.3116883E-1,1E0,-2.141223E-3,6.0413224E-3,8.2176775E-3,1.2502694E-2,-1.16105275E-2,7.6240986E-3,-8.687525E-3,3.437527E-3],"split_indices":[13,5,5,14,1,1,14,0,0,0,0,0,0,0,0],"split_type":[0,0,0,0,0,0,0,0,0,0,0,0,0,0,0],"sum_hessian":[2.599978E2,1.3994876E2,1.2004904E2,4.4608067E1,9.53407E1,1.04024025E2,1.6025019E1,1.1299498E1,3.3308567E1,4.2504852E1,5.283585E1,1.0294007E2,1.0839523E0,5.0589795E0,1.0966039E1],"tree_param":{"num_deleted":"0","num_feature":"15","num_nodes":"15","size_leaf_vector":"1"}},{"base_weights":[3.5332965E-3,8.5427874E-1,-9.86098E-1,5.408448E-1,1.1691079E0,-1.1261222E0,-6.719119E-2,6.5158014E-3,-8.094518E-3,8.3747385E-3,1.2399713E-2,-1.1531231E-2,7.5955107E-3,2.2294642E-3,-1.1993255E-2],"categories":[],"categories_nodes":[],"categories_segments":[],"categories_sizes":[],"default_left":[0,0,0,0,0,0,0,0,0,0,0,0,0,0,0],"id":57,"left_children":[1,3,5,7,9,11,13,-1,-1,-1,-1,-1,-1,-1,-1],"loss_changes":[2.1987907E2,1.322541E1,1.5458374E1,1.1328184E1,5.878067E-1,6.206711E0,5.860517E0,0E0,0E0,0E0,0E0,0E0,0E0,0E0,0E0],"parents":[2147483647,0,0,1,1,2,2,3,3,4,4,5,5,6,6],"right_children":[2,4,6,8,10,12,14,-1,-1,-1,-1,-1,-1,-1,-1],"split_conditions":[1E0,4.722222E-1,6.388889E-1,1E0,5.648148E-1,8.3116883E-1,4.032258E-1,6.5158014E-3,-8.094518E-3,8.3747385E-3,1.2399713E-2,-1.1531231E-2,7.5955107E-3,2.2294642E-3,-1.1993255E-2],"split_indices":[13,5,5,6,5,1,4,0,0,0,0,0,0,0,0],"split_type":[0,0,0,0,0,0,0,0,0,0,0,0,0,0,0],"sum_hessian":[2.5916196E2,1.3943347E2,1.1972848E2,7.123353E1,6.819994E1,1.0370089E2,1.6027588E1,6.63128E1,4.920737E0,1.4263972E1,5.393597E1,1.0261996E2,1.080931E0,1.3397275E1,2.6303115E0],"tree_param":{"num_deleted":"0","num_feature":"15","num_nodes":"15","size_leaf_vector":"1"}},{"base_weights":[3.5339296E-3,8.4899604E-1,-9.7911644E-1,5.364752E-1,1.1639994E0,-1.1328181E0,-1.4549182E-1,6.4661056E-3,-8.015969E-3,8.325498E-3,1.2349969E-2,-7.425817E-3,-1.3354114E-2,-7.9768915E-3,5.5147726E-3],"categories":[],"categories_nodes":[],"categories_segments":[],"categories_sizes":[],"default_left":[0,0,0,0,0,0,0,0,0,0,0,0,0,0,0],"id":58,"left_children":[1,3,5,7,9,11,13,-1,-1,-1,-1,-1,-1,-1,-1],"loss_changes":[2.1626385E2,1.3149986E1,1.5260597E1,1.1142405E1,5.9147644E-1,7.032898E0,9.480643E0,0E0,0E0,0E0,0E0,0E0,0E0,0E0,0E0],"parents":[2147483647,0,0,1,1,2,2,3,3,4,4,5,5,6,6],"right_children":[2,4,6,8,10,12,14,-1,-1,-1,-1,-1,-1,-1,-1],"split_conditions":[1E0,4.722222E-1,1E0,1E0,5.648148E-1,1E0,4.537037E-1,6.4661056E-3,-8.015969E-3,8.325498E-3,1.2349969E-2,-7.425817E-3,-1.3354114E-2,-7.9768915E-3,5.5147726E-3],"split_indices":[13,5,2,6,5,10,5,0,0,0,0,0,0,0,0],"split_type":[0,0,0,0,0,0,0,0,0,0,0,0,0,0,0],"sum_hessian":[2.5830936E2,1.3892003E2,1.1938933E2,7.109169E1,6.782835E1,1.0050041E2,1.8888922E1,6.616267E1,4.9290237E0,1.4211033E1,5.3617313E1,3.59393E1,6.456111E1,9.683219E0,9.205703E0],"tree_param":{"num_deleted":"0","num_feature":"15","num_nodes":"15","size_leaf_vector":"1"}},{"base_weights":[3.497315E-3,8.437571E-1,-9.719434E-1,3.8432363E-1,1.0544963E0,-1.1111231E0,-6.37098E-2,5.0345545E-5,7.2935796E-3,6.5266723E-3,1.1624681E-2,-1.138092E-2,7.585647E-3,-8.57884E-3,3.4477585E-3],"categories":[],"categories_nodes":[],"categories_segments":[],"categories_sizes":[],"default_left":[0,0,0,0,0,0,0,0,0,0,0,0,0,0,0],"id":59,"left_children":[1,3,5,7,9,11,13,-1,-1,-1,-1,-1,-1,-1,-1],"loss_changes":[2.126908E2,1.3092194E1,1.5109604E1,5.9391174E0,3.3628159E0,6.1110077E0,5.8167057E0,0E0,0E0,0E0,0E0,0E0,0E0,0E0,0E0],"parents":[2147483647,0,0,1,1,2,2,3,3,4,4,5,5,6,6],"right_children":[2,4,6,8,10,12,14,-1,-1,-1,-1,-1,-1,-1,-1],"split_conditions":[1E0,3.611111E-1,6.388889E-1,3.4848484E-1,1E0,8.3116883E-1,1E0,5.0345545E-5,7.2935796E-3,6.5266723E-3,1.1624681E-2,-1.138092E-2,7.585647E-3,-8.57884E-3,3.4477585E-3],"split_indices":[13,5,5,1,14,1,14,0,0,0,0,0,0,0,0],"split_type":[0,0,0,0,0,0,0,0,0,0,0,0,0,0,0],"sum_hessian":[2.574976E2,1.3840681E2,1.19090775E2,4.4410652E1,9.3996155E1,1.0307235E2,1.6018429E1,2.1638496E1,2.2772158E1,2.1399672E1,7.259648E1,1.0199248E2,1.0798728E0,5.067019E0,1.095141E1],"tree_param":{"num_deleted":"0","num_feature":"15","num_nodes":"15","size_leaf_vector":"1"}},{"base_weights":[3.541376E-3,8.3860016E-1,-9.6496254E-1,5.273429E-1,1.1543095E0,-1.1178426E0,-1.380056E-1,6.370638E-3,-7.982103E-3,8.212482E-3,1.2259604E-2,-7.291774E-3,-1.3201898E-2,-7.843372E-3,5.4957997E-3],"categories":[],"categories_nodes":[],"categories_segments":[],"categories_sizes":[],"default_left":[0,0,0,0,0,0,0,0,0,0,0,0,0,0,0],"id":60,"left_children":[1,3,5,7,9,11,13,-1,-1,-1,-1,-1,-1,-1,-1],"loss_changes":[2.0919061E2,1.3040054E1,1.4986549E1,1.0948515E1,6.186447E-1,6.97538E0,9.242203E0,0E0,0E0,0E0,0E0,0E0,0E0,0E0,0E0],"parents":[2147483647,0,0,1,1,2,2,3,3,4,4,5,5,6,6],"right_children":[2,4,6,8,10,12,14,-1,-1,-1,-1,-1,-1,-1,-1],"split_conditions":[1E0,4.722222E-1,1E0,1E0,5.648148E-1,1E0,4.537037E-1,6.370638E-3,-7.982103E-3,8.212482E-3,1.2259604E-2,-7.291774E-3,-1.3201898E-2,-7.843372E-3,5.4957997E-3],"split_indices":[13,5,2,6,5,10,5,0,0,0,0,0,0,0,0],"split_type":[0,0,0,0,0,0,0,0,0,0,0,0,0,0,0],"sum_hessian":[2.5665613E2,1.3789505E2,1.18761086E2,7.078177E1,6.711329E1,9.9934395E1,1.8826693E1,6.585048E1,4.9312873E0,1.4088115E1,5.3025173E1,3.5791073E1,6.414332E1,9.63194E0,9.194753E0],"tree_param":{"num_deleted":"0","num_feature":"15","num_nodes":"15","size_leaf_vector":"1"}},{"base_weights":[3.5051452E-3,8.334422E-1,-9.579561E-1,5.230827E-1,1.1493586E0,-1.096487E0,-5.9996687E-2,6.322058E-3,-7.905062E-3,8.164373E-3,1.2211616E-2,-1.123429E-2,7.575529E-3,2.2699076E-3,-1.18660545E-2],"categories":[],"categories_nodes":[],"categories_segments":[],"categories_sizes":[],"default_left":[0,0,0,0,0,0,0,0,0,0,0,0,0,0,0],"id":61,"left_children":[1,3,5,7,9,11,13,-1,-1,-1,-1,-1,-1,-1,-1],"loss_changes":[2.0574391E2,1.2966911E1,1.4793999E1,1.0768936E1,6.223602E-1,6.0176926E0,5.7734885E0,0E0,0E0,0E0,0E0,0E0,0E0,0E0,0E0],"parents":[2147483647,0,0,1,1,2,2,3,3,4,4,5,5,6,6],"right_children":[2,4,6,8,10,12,14,-1,-1,-1,-1,-1,-1,-1,-1],"split_conditions":[1E0,4.722222E-1,6.388889E-1,1E0,5.648148E-1,8.3116883E-1,4.032258E-1,6.322058E-3,-7.905062E-3,8.164373E-3,1.2211616E-2,-1.123429E-2,7.575529E-3,2.2699076E-3,-1.18660545E-2],"split_indices":[13,5,5,6,5,1,4,0,0,0,0,0,0,0,0],"split_type":[0,0,0,0,0,0,0,0,0,0,0,0,0,0,0],"sum_hessian":[2.5583928E2,1.3738293E2,1.1845634E2,7.064062E1,6.674232E1,1.02432655E2,1.602368E1,6.570136E1,4.9392576E0,1.4035575E1,5.2706745E1,1.0135389E2,1.0787671E0,1.3406965E1,2.616714E0],"tree_param":{"num_deleted":"0","num_feature":"15","num_nodes":"15","size_leaf_vector":"1"}},{"base_weights":[3.5063569E-3,8.283254E-1,-9.512919E-1,3.7231138E-1,1.0396484E0,-1.1033682E0,-1.3083032E-1,-2.366982E-3,5.8043473E-3,6.767018E-3,1.1626859E-2,-7.1644937E-3,-1.305381E-2,-7.7124313E-3,5.476609E-3],"categories":[],"categories_nodes":[],"categories_segments":[],"categories_sizes":[],"default_left":[0,0,0,0,0,0,0,0,0,0,0,0,0,0,0],"id":62,"left_children":[1,3,5,7,9,11,13,-1,-1,-1,-1,-1,-1,-1,-1],"loss_changes":[2.0237936E2,1.2899071E1,1.4716858E1,5.8686113E0,3.3954391E0,6.9081345E0,9.008047E0,0E0,0E0,0E0,0E0,0E0,0E0,0E0,0E0],"parents":[2147483647,0,0,1,1,2,2,3,3,4,4,5,5,6,6],"right_children":[2,4,6,8,10,12,14,-1,-1,-1,-1,-1,-1,-1,-1],"split_conditions":[1E0,3.611111E-1,1E0,1E0,2.4193548E-1,1E0,4.537037E-1,-2.366982E-3,5.8043473E-3,6.767018E-3,1.1626859E-2,-7.1644937E-3,-1.305381E-2,-7.7124313E-3,5.476609E-3],"split_indices":[13,5,2,14,4,10,5,0,0,0,0,0,0,0,0],"split_type":[0,0,0,0,0,0,0,0,0,0,0,0,0,0,0],"sum_hessian":[2.5497745E2,1.3687128E2,1.1810617E2,4.4217068E1,9.265421E1,9.934695E1,1.8759222E1,1.1227095E1,3.298997E1,2.5103073E1,6.755114E1,3.563711E1,6.370983E1,9.580087E0,9.179134E0],"tree_param":{"num_deleted":"0","num_feature":"15","num_nodes":"15","size_leaf_vector":"1"}},{"base_weights":[3.4835602E-3,8.2328624E-1,-9.4444394E-1,5.1416063E-1,1.1399704E0,-1.0956886E0,-1.2979166E-1,6.229094E-3,-7.877051E-3,8.058778E-3,1.2123537E-2,-7.1051973E-3,-1.2972401E-2,-7.657666E-3,5.4285885E-3],"categories":[],"categories_nodes":[],"categories_segments":[],"categories_sizes":[],"default_left":[0,0,0,0,0,0,0,0,0,0,0,0,0,0,0],"id":63,"left_children":[1,3,5,7,9,11,13,-1,-1,-1,-1,-1,-1,-1,-1],"loss_changes":[1.990608E2,1.2860535E1,1.4494804E1,1.0589304E1,6.4391327E-1,6.8460693E0,8.858526E0,0E0,0E0,0E0,0E0,0E0,0E0,0E0,0E0],"parents":[2147483647,0,0,1,1,2,2,3,3,4,4,5,5,6,6],"right_children":[2,4,6,8,10,12,14,-1,-1,-1,-1,-1,-1,-1,-1],"split_conditions":[1E0,4.722222E-1,1E0,1E0,5.648148E-1,1E0,4.537037E-1,6.229094E-3,-7.877051E-3,8.058778E-3,1.2123537E-2,-7.1051973E-3,-1.2972401E-2,-7.657666E-3,5.4285885E-3],"split_indices":[13,5,2,6,5,10,5,0,0,0,0,0,0,0,0],"split_type":[0,0,0,0,0,0,0,0,0,0,0,0,0,0,0],"sum_hessian":[2.5415352E2,1.3635777E2,1.17795746E2,7.0329994E1,6.602779E1,9.905979E1,1.8735958E1,6.538935E1,4.9406443E0,1.39185915E1,5.210919E1,3.558379E1,6.3476E1,9.55937E0,9.176587E0],"tree_param":{"num_deleted":"0","num_feature":"15","num_nodes":"15","size_leaf_vector":"1"}},{"base_weights":[3.4483601E-3,8.1824595E-1,-9.3767506E-1,5.1000565E-1,1.1351666E0,-1.0753528E0,-5.342702E-2,6.181585E-3,-7.8014084E-3,8.011706E-3,1.2077197E-2,-1.1023547E-2,7.5830356E-3,-8.392608E-3,3.5137956E-3],"categories":[],"categories_nodes":[],"categories_segments":[],"categories_sizes":[],"default_left":[0,0,0,0,0,0,0,0,0,0,0,0,0,0,0],"id":64,"left_children":[1,3,5,7,9,11,13,-1,-1,-1,-1,-1,-1,-1,-1],"loss_changes":[1.95794E2,1.2789398E1,1.4366745E1,1.0415573E1,6.476898E-1,5.9093323E0,5.7074537E0,0E0,0E0,0E0,0E0,0E0,0E0,0E0,0E0],"parents":[2147483647,0,0,1,1,2,2,3,3,4,4,5,5,6,6],"right_children":[2,4,6,8,10,12,14,-1,-1,-1,-1,-1,-1,-1,-1],"split_conditions":[1E0,4.722222E-1,6.388889E-1,1E0,5.648148E-1,8.3116883E-1,1E0,6.181585E-3,-7.8014084E-3,8.011706E-3,1.2077197E-2,-1.1023547E-2,7.5830356E-3,-8.392608E-3,3.5137956E-3],"split_indices":[13,5,5,6,5,1,14,0,0,0,0,0,0,0,0],"split_type":[0,0,0,0,0,0,0,0,0,0,0,0,0,0,0],"sum_hessian":[2.5333018E2,1.3584772E2,1.17482475E2,7.018973E1,6.565798E1,1.0146779E2,1.6014688E1,6.524141E1,4.94832E0,1.3866504E1,5.179148E1,1.0038832E2,1.0794675E0,5.0799537E0,1.0934736E1],"tree_param":{"num_deleted":"0","num_feature":"15","num_nodes":"15","size_leaf_vector":"1"}},{"base_weights":[3.4684183E-3,8.1324446E-1,-9.310703E-1,5.0588495E-1,1.130411E0,-1.0815883E0,-1.2268261E-1,6.134434E-3,-7.726751E-3,7.9649445E-3,1.2031404E-2,-6.9773966E-3,-1.2830743E-2,-7.5302636E-3,5.4090205E-3],"categories":[],"categories_nodes":[],"categories_segments":[],"categories_sizes":[],"default_left":[0,0,0,0,0,0,0,0,0,0,0,0,0,0,0],"id":65,"left_children":[1,3,5,7,9,11,13,-1,-1,-1,-1,-1,-1,-1,-1],"loss_changes":[1.9258173E2,1.2718971E1,1.4242287E1,1.0244743E1,6.515503E-1,6.7976456E0,8.635966E0,0E0,0E0,0E0,0E0,0E0,0E0,0E0,0E0],"parents":[2147483647,0,0,1,1,2,2,3,3,4,4,5,5,6,6],"right_children":[2,4,6,8,10,12,14,-1,-1,-1,-1,-1,-1,-1,-1],"split_conditions":[1E0,4.722222E-1,1E0,1E0,5.648148E-1,1E0,4.537037E-1,6.134434E-3,-7.726751E-3,7.9649445E-3,1.2031404E-2,-6.9773966E-3,-1.2830743E-2,-7.5302636E-3,5.4090205E-3],"split_indices":[13,5,2,6,5,10,5,0,0,0,0,0,0,0,0],"split_type":[0,0,0,0,0,0,0,0,0,0,0,0,0,0,0],"sum_hessian":[2.5247896E2,1.3533833E2,1.17140625E2,7.004966E1,6.528867E1,9.846833E1,1.867229E1,6.5093864E1,4.9557953E0,1.3814566E1,5.147411E1,3.543139E1,6.303694E1,9.5068655E0,9.165424E0],"tree_param":{"num_deleted":"0","num_feature":"15","num_nodes":"15","size_leaf_vector":"1"}},{"base_weights":[3.4341204E-3,8.082812E-1,-9.244495E-1,3.5634798E-1,1.0205687E0,-1.0615488E0,-4.9953375E-2,-2.2103432E-4,7.025E-3,6.1058947E-3,1.1318391E-2,-1.0885359E-2,7.572287E-3,2.3326904E-3,-1.1710848E-2],"categories":[],"categories_nodes":[],"categories_segments":[],"categories_sizes":[],"default_left":[0,0,0,0,0,0,0,0,0,0,0,0,0,0,0],"id":66,"left_children":[1,3,5,7,9,11,13,-1,-1,-1,-1,-1,-1,-1,-1],"loss_changes":[1.8942906E2,1.2667801E1,1.4073059E1,5.9038186E0,3.5004196E0,5.821213E0,5.676773E0,0E0,0E0,0E0,0E0,0E0,0E0,0E0,0E0],"parents":[2147483647,0,0,1,1,2,2,3,3,4,4,5,5,6,6],"right_children":[2,4,6,8,10,12,14,-1,-1,-1,-1,-1,-1,-1,-1],"split_conditions":[1E0,3.611111E-1,6.388889E-1,3.4848484E-1,1E0,8.3116883E-1,4.032258E-1,-2.2103432E-4,7.025E-3,6.1058947E-3,1.1318391E-2,-1.0885359E-2,7.572287E-3,2.3326904E-3,-1.1710848E-2],"split_indices":[13,5,5,1,14,1,4,0,0,0,0,0,0,0,0],"split_type":[0,0,0,0,0,0,0,0,0,0,0,0,0,0,0],"sum_hessian":[2.5165228E2,1.3482974E2,1.1682254E2,4.39482E1,9.0881546E1,1.00804924E2,1.6017614E1,2.1441809E1,2.2506393E1,2.0785221E1,7.009632E1,9.9726685E1,1.0782461E0,1.3419491E1,2.5981238E0],"tree_param":{"num_deleted":"0","num_feature":"15","num_nodes":"15","size_leaf_vector":"1"}},{"base_weights":[3.4601057E-3,8.03381E-1,-9.18141E-1,4.9723798E-1,1.1213831E0,-1.067946E0,-1.1586227E-1,6.043824E-3,-7.693368E-3,7.856662E-3,1.1948378E-2,-6.856054E-3,-1.2692712E-2,-7.405184E-3,5.3893765E-3],"categories":[],"categories_nodes":[],"categories_segments":[],"categories_sizes":[],"default_left":[0,0,0,0,0,0,0,0,0,0,0,0,0,0,0],"id":67,"left_children":[1,3,5,7,9,11,13,-1,-1,-1,-1,-1,-1,-1,-1],"loss_changes":[1.8635678E2,1.2616852E1,1.3993423E1,1.00655E1,6.7845917E-1,6.73938E0,8.417457E0,0E0,0E0,0E0,0E0,0E0,0E0,0E0,0E0],"parents":[2147483647,0,0,1,1,2,2,3,3,4,4,5,5,6,6],"right_children":[2,4,6,8,10,12,14,-1,-1,-1,-1,-1,-1,-1,-1],"split_conditions":[1E0,4.722222E-1,1E0,1E0,5.648148E-1,1E0,4.537037E-1,6.043824E-3,-7.693368E-3,7.856662E-3,1.1948378E-2,-6.856054E-3,-1.2692712E-2,-7.405184E-3,5.3893765E-3],"split_indices":[13,5,2,6,5,10,5,0,0,0,0,0,0,0,0],"split_type":[0,0,0,0,0,0,0,0,0,0,0,0,0,0,0],"sum_hessian":[2.507867E2,1.3432504E2,1.16461655E2,6.974481E1,6.458024E1,9.785805E1,1.860361E1,6.478705E1,4.9577637E0,1.3693149E1,5.0887093E1,3.5274014E1,6.258403E1,9.453958E0,9.1496525E0],"tree_param":{"num_deleted":"0","num_feature":"15","num_nodes":"15","size_leaf_vector":"1"}},{"base_weights":[3.4263157E-3,7.984888E-1,-9.1166115E-1,4.0857238E-1,1.0455661E0,-1.0606866E0,-1.1494921E-1,-8.389318E-3,7.2488477E-3,6.0974816E-3,1.152704E-2,-6.7996476E-3,-1.26164835E-2,-7.353061E-3,5.3422437E-3],"categories":[],"categories_nodes":[],"categories_segments":[],"categories_sizes":[],"default_left":[0,0,0,0,0,0,0,0,0,0,0,0,0,0,0],"id":68,"left_children":[1,3,5,7,9,11,13,-1,-1,-1,-1,-1,-1,-1,-1],"loss_changes":[1.8331273E2,1.2561157E1,1.37860565E1,2.1890892E1,3.1205063E0,6.6829453E0,8.278009E0,0E0,0E0,0E0,0E0,0E0,0E0,0E0,0E0],"parents":[2147483647,0,0,1,1,2,2,3,3,4,4,5,5,6,6],"right_children":[2,4,6,8,10,12,14,-1,-1,-1,-1,-1,-1,-1,-1],"split_conditions":[1E0,3.6147186E-1,1E0,1E0,1.7741935E-1,1E0,4.537037E-1,-8.389318E-3,7.2488477E-3,6.0974816E-3,1.152704E-2,-6.7996476E-3,-1.26164835E-2,-7.353061E-3,5.3422437E-3],"split_indices":[13,1,2,14,4,10,5,0,0,0,0,0,0,0,0],"split_type":[0,0,0,0,0,0,0,0,0,0,0,0,0,0,0],"sum_hessian":[2.499578E2,1.3381859E2,1.16139206E2,5.2934875E1,8.088371E1,9.755934E1,1.8579866E1,1.0372918E1,4.256196E1,1.7280592E1,6.360312E1,3.521953E1,6.2339813E1,9.432957E0,9.14691E0],"tree_param":{"num_deleted":"0","num_feature":"15","num_nodes":"15","size_leaf_vector":"1"}},{"base_weights":[3.3869175E-3,7.935126E-1,-9.052517E-1,4.876027E-1,1.1131164E0,-1.0726796E0,-1.9481476E-1,5.9431684E-3,-7.6601803E-3,7.7665057E-3,1.1870778E-2,-1.10198725E-2,7.578537E-3,-1.0172344E-2,2.5735414E-3],"categories":[],"categories_nodes":[],"categories_segments":[],"categories_sizes":[],"default_left":[0,0,0,0,0,0,0,0,0,0,0,0,0,0,0],"id":69,"left_children":[1,3,5,7,9,11,13,-1,-1,-1,-1,-1,-1,-1,-1],"loss_changes":[1.8030795E2,1.2590828E1,1.3685776E1,9.875406E0,6.935272E-1,5.8949356E0,9.001166E0,0E0,0E0,0E0,0E0,0E0,0E0,0E0,0E0],"parents":[2147483647,0,0,1,1,2,2,3,3,4,4,5,5,6,6],"right_children":[2,4,6,8,10,12,14,-1,-1,-1,-1,-1,-1,-1,-1],"split_conditions":[1E0,4.722222E-1,5.462963E-1,1E0,5.648148E-1,8.3116883E-1,1E0,5.9431684E-3,-7.6601803E-3,7.7665057E-3,1.1870778E-2,-1.10198725E-2,7.578537E-3,-1.0172344E-2,2.5735414E-3],"split_indices":[13,5,5,6,5,1,14,0,0,0,0,0,0,0,0],"split_type":[0,0,0,0,0,0,0,0,0,0,0,0,0,0,0],"sum_hessian":[2.4914618E2,1.333316E2,1.15814575E2,6.941574E1,6.3915867E1,9.3313576E1,2.2500998E1,6.445495E1,4.9607897E0,1.3590542E1,5.0325325E1,9.2234856E1,1.078724E0,7.5390496E0,1.4961948E1],"tree_param":{"num_deleted":"0","num_feature":"15","num_nodes":"15","size_leaf_vector":"1"}},{"base_weights":[3.3947737E-3,7.886894E-1,-8.9893353E-1,3.3918595E-1,1.0025661E0,-1.0473201E0,-1.082118E-1,4.039695E-5,7.2938013E-3,5.9097037E-3,1.115132E-2,-6.67842E-3,-1.2483309E-2,-7.228931E-3,5.315842E-3],"categories":[],"categories_nodes":[],"categories_segments":[],"categories_sizes":[],"default_left":[0,0,0,0,0,0,0,0,0,0,0,0,0,0,0],"id":70,"left_children":[1,3,5,7,9,11,13,-1,-1,-1,-1,-1,-1,-1,-1],"loss_changes":[1.7736212E2,1.2525894E1,1.3552795E1,5.8370595E0,3.5186996E0,6.638214E0,8.06052E0,0E0,0E0,0E0,0E0,0E0,0E0,0E0,0E0],"parents":[2147483647,0,0,1,1,2,2,3,3,4,4,5,5,6,6],"right_children":[2,4,6,8,10,12,14,-1,-1,-1,-1,-1,-1,-1,-1],"split_conditions":[1E0,3.611111E-1,1E0,2.7419356E-1,1E0,1E0,4.537037E-1,4.039695E-5,7.2938013E-3,5.9097037E-3,1.115132E-2,-6.67842E-3,-1.2483309E-2,-7.228931E-3,5.315842E-3],"split_indices":[13,5,2,4,14,10,5,0,0,0,0,0,0,0,0],"split_type":[0,0,0,0,0,0,0,0,0,0,0,0,0,0,0],"sum_hessian":[2.4830109E2,1.328275E2,1.1547358E2,4.3657887E1,8.916962E1,9.6954605E1,1.851898E1,2.4029114E1,1.9628773E1,2.0491772E1,6.867784E1,3.5070053E1,6.188455E1,9.378624E0,9.140355E0],"tree_param":{"num_deleted":"0","num_feature":"15","num_nodes":"15","size_leaf_vector":"1"}},{"base_weights":[3.3884328E-3,7.839567E-1,-8.9265645E-1,5.34662E-1,1.1791284E0,-1.0286914E0,-3.9262738E-2,-1.4075924E-3,7.589332E-3,1.1961973E-2,2.1303066E-3,-1.05574895E-2,7.567195E-3,2.403565E-3,-1.1560525E-2],"categories":[],"categories_nodes":[],"categories_segments":[],"categories_sizes":[],"default_left":[0,0,0,0,0,0,0,0,0,0,0,0,0,0,0],"id":71,"left_children":[1,3,5,7,9,11,13,-1,-1,-1,-1,-1,-1,-1,-1],"loss_changes":[1.7448486E2,1.2503815E1,1.3443085E1,1.27673855E1,5.819397E-1,5.6364136E0,5.58915E0,0E0,0E0,0E0,0E0,0E0,0E0,0E0,0E0],"parents":[2147483647,0,0,1,1,2,2,3,3,4,4,5,5,6,6],"right_children":[2,4,6,8,10,12,14,-1,-1,-1,-1,-1,-1,-1,-1],"split_conditions":[1E0,5.648148E-1,6.388889E-1,1E0,1E0,8.3116883E-1,4.032258E-1,-1.4075924E-3,7.589332E-3,1.1961973E-2,2.1303066E-3,-1.05574895E-2,7.567195E-3,2.403565E-3,-1.1560525E-2],"split_indices":[13,5,5,14,5,1,4,0,0,0,0,0,0,0,0],"split_type":[0,0,0,0,0,0,0,0,0,0,0,0,0,0,0],"sum_hessian":[2.4746875E2,1.3232343E2,1.15145325E2,8.258043E1,4.9743E1,9.913702E1,1.600831E1,2.067809E1,6.190234E1,4.8645367E1,1.0976342E0,9.8059616E1,1.077396E0,1.3430412E1,2.5778968E0],"tree_param":{"num_deleted":"0","num_feature":"15","num_nodes":"15","size_leaf_vector":"1"}},{"base_weights":[3.401931E-3,7.79165E-1,-8.866649E-1,3.886168E-1,1.0283042E0,-1.0344139E0,-1.0172594E-1,-8.440009E-3,7.048829E-3,5.9176832E-3,1.1366134E-2,-6.5624854E-3,-1.23541225E-2,-7.109172E-3,5.2957963E-3],"categories":[],"categories_nodes":[],"categories_segments":[],"categories_sizes":[],"default_left":[0,0,0,0,0,0,0,0,0,0,0,0,0,0,0],"id":72,"left_children":[1,3,5,7,9,11,13,-1,-1,-1,-1,-1,-1,-1,-1],"loss_changes":[1.7165944E2,1.2524979E1,1.3321838E1,2.1389252E1,3.1330261E0,6.587166E0,7.8564825E0,0E0,0E0,0E0,0E0,0E0,0E0,0E0,0E0],"parents":[2147483647,0,0,1,1,2,2,3,3,4,4,5,5,6,6],"right_children":[2,4,6,8,10,12,14,-1,-1,-1,-1,-1,-1,-1,-1],"split_conditions":[1E0,3.6147186E-1,1E0,1E0,1.7741935E-1,1E0,4.537037E-1,-8.440009E-3,7.048829E-3,5.9176832E-3,1.1366134E-2,-6.5624854E-3,-1.23541225E-2,-7.109172E-3,5.2957963E-3],"split_indices":[13,1,2,14,4,10,5,0,0,0,0,0,0,0,0],"split_type":[0,0,0,0,0,0,0,0,0,0,0,0,0,0,0],"sum_hessian":[2.4660793E2,1.3183125E2,1.1477667E2,5.234133E1,7.948992E1,9.6327194E1,1.8449482E1,1.0346841E1,4.199449E1,1.708663E1,6.2403294E1,3.4910427E1,6.1416767E1,9.325013E0,9.124469E0],"tree_param":{"num_deleted":"0","num_feature":"15","num_nodes":"15","size_leaf_vector":"1"}},{"base_weights":[3.3629013E-3,7.7432597E-1,-8.805138E-1,5.2518463E-1,1.1717273E0,-1.0468758E0,-1.8243723E-1,-1.4240448E-3,7.4813096E-3,1.1888893E-2,2.094073E-3,-1.0761887E-2,7.5556412E-3,-9.987384E-3,2.6561462E-3],"categories":[],"categories_nodes":[],"categories_segments":[],"categories_sizes":[],"default_left":[0,0,0,0,0,0,0,0,0,0,0,0,0,0,0],"id":73,"left_children":[1,3,5,7,9,11,13,-1,-1,-1,-1,-1,-1,-1,-1],"loss_changes":[1.6885616E2,1.2488342E1,1.3216057E1,1.2483965E1,5.799103E-1,5.7276382E0,8.834175E0,0E0,0E0,0E0,0E0,0E0,0E0,0E0,0E0],"parents":[2147483647,0,0,1,1,2,2,3,3,4,4,5,5,6,6],"right_children":[2,4,6,8,10,12,14,-1,-1,-1,-1,-1,-1,-1,-1],"split_conditions":[1E0,5.648148E-1,5.462963E-1,1E0,1E0,8.3116883E-1,1E0,-1.4240448E-3,7.4813096E-3,1.1888893E-2,2.094073E-3,-1.0761887E-2,7.5556412E-3,-9.987384E-3,2.6561462E-3],"split_indices":[13,5,5,14,5,1,14,0,0,0,0,0,0,0,0],"split_type":[0,0,0,0,0,0,0,0,0,0,0,0,0,0,0],"sum_hessian":[2.4579393E2,1.3134871E2,1.1444521E2,8.216122E1,4.9187496E1,9.2016624E1,2.2428587E1,2.0659575E1,6.150164E1,4.8094334E1,1.093163E0,9.09406E1,1.0760283E0,7.5125246E0,1.4916063E1],"tree_param":{"num_deleted":"0","num_feature":"15","num_nodes":"15","size_leaf_vector":"1"}},{"base_weights":[3.3821831E-3,7.6960176E-1,-8.7444293E-1,3.7972313E-1,1.0193777E0,-1.0216026E0,-9.527804E-2,-8.3644735E-3,6.944523E-3,5.82713E-3,1.1283023E-2,-6.4455247E-3,-1.2227502E-2,-6.9892127E-3,5.268796E-3],"categories":[],"categories_nodes":[],"categories_segments":[],"categories_sizes":[],"default_left":[0,0,0,0,0,0,0,0,0,0,0,0,0,0,0],"id":74,"left_children":[1,3,5,7,9,11,13,-1,-1,-1,-1,-1,-1,-1,-1],"loss_changes":[1.661055E2,1.2453644E1,1.3100044E1,2.0899021E1,3.1369705E0,6.5466614E0,7.649576E0,0E0,0E0,0E0,0E0,0E0,0E0,0E0,0E0],"parents":[2147483647,0,0,1,1,2,2,3,3,4,4,5,5,6,6],"right_children":[2,4,6,8,10,12,14,-1,-1,-1,-1,-1,-1,-1,-1],"split_conditions":[1E0,3.6147186E-1,1E0,1E0,1.7741935E-1,1E0,4.537037E-1,-8.3644735E-3,6.944523E-3,5.82713E-3,1.1283023E-2,-6.4455247E-3,-1.2227502E-2,-6.9892127E-3,5.268796E-3],"split_indices":[13,1,2,14,4,10,5,0,0,0,0,0,0,0,0],"split_type":[0,0,0,0,0,0,0,0,0,0,0,0,0,0,0],"sum_hessian":[2.4495728E2,1.308589E2,1.1409838E2,5.2082645E1,7.877625E1,9.571052E1,1.8387861E1,1.0366592E1,4.1716053E1,1.6995045E1,6.1781204E1,3.4759106E1,6.0951416E1,9.270172E0,9.117689E0],"tree_param":{"num_deleted":"0","num_feature":"15","num_nodes":"15","size_leaf_vector":"1"}},{"base_weights":[3.3436823E-3,7.648323E-1,-8.6841315E-1,3.1575203E-1,9.81692E-1,-1.0342742E0,-1.7692666E-1,4.042731E-3,-1.0592772E-2,3.955587E-3,1.0584919E-2,-1.063596E-2,7.543877E-3,-9.857756E-3,2.6662971E-3],"categories":[],"categories_nodes":[],"categories_segments":[],"categories_sizes":[],"default_left":[0,0,0,0,0,0,0,0,0,0,0,0,0,0,0],"id":75,"left_children":[1,3,5,7,9,11,13,-1,-1,-1,-1,-1,-1,-1,-1],"loss_changes":[1.633978E2,1.24846115E1,1.2979393E1,5.8151317E0,3.5480957E0,5.646126E0,8.66109E0,0E0,0E0,0E0,0E0,0E0,0E0,0E0,0E0],"parents":[2147483647,0,0,1,1,2,2,3,3,4,4,5,5,6,6],"right_children":[2,4,6,8,10,12,14,-1,-1,-1,-1,-1,-1,-1,-1],"split_conditions":[1E0,3.611111E-1,5.462963E-1,1E0,1.1290322E-1,8.3116883E-1,1E0,4.042731E-3,-1.0592772E-2,3.955587E-3,1.0584919E-2,-1.063596E-2,7.543877E-3,-9.857756E-3,2.6662971E-3],"split_indices":[13,5,5,8,4,1,14,0,0,0,0,0,0,0,0],"split_type":[0,0,0,0,0,0,0,0,0,0,0,0,0,0,0],"sum_hessian":[2.4414244E2,1.303783E2,1.13764145E2,4.325677E1,8.712153E1,9.135569E1,2.2408453E1,4.1303726E1,1.9530464E0,1.080544E1,7.631609E1,9.028107E1,1.0746219E0,7.5033154E0,1.4905138E1],"tree_param":{"num_deleted":"0","num_feature":"15","num_nodes":"15","size_leaf_vector":"1"}},{"base_weights":[3.314839E-3,7.601192E-1,-8.624598E-1,5.1106536E-1,1.1610101E0,-1.0090531E0,-8.896664E-2,-1.5034385E-3,7.334014E-3,1.1783572E-2,2.0197593E-3,-6.330611E-3,-1.2103953E-2,-6.871237E-3,5.241663E-3],"categories":[],"categories_nodes":[],"categories_segments":[],"categories_sizes":[],"default_left":[0,0,0,0,0,0,0,0,0,0,0,0,0,0,0],"id":76,"left_children":[1,3,5,7,9,11,13,-1,-1,-1,-1,-1,-1,-1,-1],"loss_changes":[1.6072598E2,1.2474625E1,1.2883606E1,1.2244812E1,5.8330536E-1,6.507965E0,7.44794E0,0E0,0E0,0E0,0E0,0E0,0E0,0E0,0E0],"parents":[2147483647,0,0,1,1,2,2,3,3,4,4,5,5,6,6],"right_children":[2,4,6,8,10,12,14,-1,-1,-1,-1,-1,-1,-1,-1],"split_conditions":[1E0,5.648148E-1,1E0,1E0,1E0,1E0,4.537037E-1,-1.5034385E-3,7.334014E-3,1.1783572E-2,2.0197593E-3,-6.330611E-3,-1.2103953E-2,-6.871237E-3,5.241663E-3],"split_indices":[13,5,2,14,5,10,5,0,0,0,0,0,0,0,0],"split_type":[0,0,0,0,0,0,0,0,0,0,0,0,0,0,0],"sum_hessian":[2.4329953E2,1.2988472E2,1.1341481E2,8.151703E1,4.8367687E1,9.5088905E1,1.8325905E1,2.058983E1,6.09272E1,4.7283726E1,1.08396E0,3.4607018E1,6.0481888E1,9.215156E0,9.11075E0],"tree_param":{"num_deleted":"0","num_feature":"15","num_nodes":"15","size_leaf_vector":"1"}},{"base_weights":[3.293948E-3,7.554893E-1,-8.5654616E-1,4.3616283E-1,1.0654767E0,-1.0219269E0,-1.7154026E-1,-6.801495E-3,7.130839E-3,-4.3273988E-4,1.0895175E-2,-1.0512613E-2,7.531909E-3,-9.730912E-3,2.6757931E-3],"categories":[],"categories_nodes":[],"categories_segments":[],"categories_sizes":[],"default_left":[0,0,0,0,0,0,0,0,0,0,0,0,0,0,0],"id":77,"left_children":[1,3,5,7,9,11,13,-1,-1,-1,-1,-1,-1,-1,-1],"loss_changes":[1.5812047E2,1.2443123E1,1.2748253E1,2.0864468E1,1.7923813E0,5.5663223E0,8.49217E0,0E0,0E0,0E0,0E0,0E0,0E0,0E0,0E0],"parents":[2147483647,0,0,1,1,2,2,3,3,4,4,5,5,6,6],"right_children":[2,4,6,8,10,12,14,-1,-1,-1,-1,-1,-1,-1,-1],"split_conditions":[1E0,4.1125542E-1,5.462963E-1,1E0,2.1052632E-1,8.3116883E-1,1E0,-6.801495E-3,7.130839E-3,-4.3273988E-4,1.0895175E-2,-1.0512613E-2,7.531909E-3,-9.730912E-3,2.6757931E-3],"split_indices":[13,1,5,14,3,1,14,0,0,0,0,0,0,0,0],"split_type":[0,0,0,0,0,0,0,0,0,0,0,0,0,0,0],"sum_hessian":[2.4247745E2,1.2939925E2,1.1307819E2,6.492513E1,6.447412E1,9.069087E1,2.238732E1,1.2615194E1,5.2309937E1,1.3513291E0,6.312279E1,8.961769E1,1.0731777E0,7.493318E0,1.4894002E1],"tree_param":{"num_deleted":"0","num_feature":"15","num_nodes":"15","size_leaf_vector":"1"}},{"base_weights":[3.278258E-3,7.50767E-1,-8.5070556E-1,5.018632E-1,1.153977E0,-9.967536E-1,-8.278871E-2,-1.5133686E-3,7.227747E-3,1.1714313E-2,1.9825206E-3,-6.2176767E-3,-1.1983332E-2,-6.755176E-3,5.214405E-3],"categories":[],"categories_nodes":[],"categories_segments":[],"categories_sizes":[],"default_left":[0,0,0,0,0,0,0,0,0,0,0,0,0,0,0],"id":78,"left_children":[1,3,5,7,9,11,13,-1,-1,-1,-1,-1,-1,-1,-1],"loss_changes":[1.5553383E2,1.2460197E1,1.2672241E1,1.1956919E1,5.821686E-1,6.4709167E0,7.2514133E0,0E0,0E0,0E0,0E0,0E0,0E0,0E0,0E0],"parents":[2147483647,0,0,1,1,2,2,3,3,4,4,5,5,6,6],"right_children":[2,4,6,8,10,12,14,-1,-1,-1,-1,-1,-1,-1,-1],"split_conditions":[1E0,5.648148E-1,1E0,1E0,1E0,1E0,4.537037E-1,-1.5133686E-3,7.227747E-3,1.1714313E-2,1.9825206E-3,-6.2176767E-3,-1.1983332E-2,-6.755176E-3,5.214405E-3],"split_indices":[13,5,2,14,5,10,5,0,0,0,0,0,0,0,0],"split_type":[0,0,0,0,0,0,0,0,0,0,0,0,0,0,0],"sum_hessian":[2.4165178E2,1.2892505E2,1.1272673E2,8.110386E1,4.782119E1,9.446306E1,1.8263672E1,2.0576723E1,6.0527138E1,4.674185E1,1.0793378E0,3.4454323E1,6.0008736E1,9.160016E0,9.103656E0],"tree_param":{"num_deleted":"0","num_feature":"15","num_nodes":"15","size_leaf_vector":"1"}},{"base_weights":[3.257953E-3,7.461996E-1,-8.4490347E-1,2.9821077E-1,9.652843E-1,-1.0098226E0,-1.6627477E-1,9.362679E-4,9.520016E-3,5.907812E-3,1.0962246E-2,-1.0391727E-2,7.5197397E-3,-9.60675E-3,2.684654E-3],"categories":[],"categories_nodes":[],"categories_segments":[],"categories_sizes":[],"default_left":[0,0,0,0,0,0,0,0,0,0,0,0,0,0,0],"id":79,"left_children":[1,3,5,7,9,11,13,-1,-1,-1,-1,-1,-1,-1,-1],"loss_changes":[1.530162E2,1.2416595E1,1.2522369E1,5.790658E0,3.5932922E0,5.4881287E0,8.327271E0,0E0,0E0,0E0,0E0,0E0,0E0,0E0,0E0],"parents":[2147483647,0,0,1,1,2,2,3,3,4,4,5,5,6,6],"right_children":[2,4,6,8,10,12,14,-1,-1,-1,-1,-1,-1,-1,-1],"split_conditions":[1E0,3.611111E-1,5.462963E-1,1E0,2.4193548E-1,8.3116883E-1,1E0,9.362679E-4,9.520016E-3,5.907812E-3,1.0962246E-2,-1.0391727E-2,7.5197397E-3,-9.60675E-3,2.684654E-3],"split_indices":[13,5,5,2,4,1,14,0,0,0,0,0,0,0,0],"split_type":[0,0,0,0,0,0,0,0,0,0,0,0,0,0,0],"sum_hessian":[2.4083052E2,1.2844241E2,1.1238811E2,4.2959366E1,8.548305E1,9.002287E1,2.2365234E1,3.359122E1,9.368144E0,2.3573172E1,6.1909874E1,8.895118E1,1.0716965E0,7.482572E0,1.4882663E1],"tree_param":{"num_deleted":"0","num_feature":"15","num_nodes":"15","size_leaf_vector":"1"}},{"base_weights":[3.311842E-3,7.417394E-1,-8.391709E-1,4.9359688E-1,1.1466337E0,-9.8469317E-1,-7.6740615E-2,-1.5548063E-3,7.1407524E-3,1.1642231E-2,1.9342443E-3,-6.10666E-3,-1.18655E-2,-6.6409567E-3,5.1870337E-3],"categories":[],"categories_nodes":[],"categories_segments":[],"categories_sizes":[],"default_left":[0,0,0,0,0,0,0,0,0,0,0,0,0,0,0],"id":80,"left_children":[1,3,5,7,9,11,13,-1,-1,-1,-1,-1,-1,-1,-1],"loss_changes":[1.5054755E2,1.2390694E1,1.24657135E1,1.1804703E1,5.8372116E-1,6.435356E0,7.059845E0,0E0,0E0,0E0,0E0,0E0,0E0,0E0,0E0],"parents":[2147483647,0,0,1,1,2,2,3,3,4,4,5,5,6,6],"right_children":[2,4,6,8,10,12,14,-1,-1,-1,-1,-1,-1,-1,-1],"split_conditions":[1E0,5.648148E-1,1E0,1E0,1E0,1E0,4.537037E-1,-1.5548063E-3,7.1407524E-3,1.1642231E-2,1.9342443E-3,-6.10666E-3,-1.18655E-2,-6.6409567E-3,5.1870337E-3],"split_indices":[13,5,2,14,5,10,5,0,0,0,0,0,0,0,0],"split_type":[0,0,0,0,0,0,0,0,0,0,0,0,0,0,0],"sum_hessian":[2.3999356E2,1.2795867E2,1.1203489E2,8.0712494E1,4.7246174E1,9.383368E1,1.8201212E1,2.0539635E1,6.017286E1,4.6172787E1,1.0733855E0,